tree
version=v2
num_class=1
num_tree_per_iteration=1
label_index=0
max_feature_idx=148
objective=regression
feature_names=Column_0 Column_1 Column_2 Column_3 Column_4 Column_5 Column_6 Column_7 Column_8 Column_9 Column_10 Column_11 Column_12 Column_13 Column_14 Column_15 Column_16 Column_17 Column_18 Column_19 Column_20 Column_21 Column_22 Column_23 Column_24 Column_25 Column_26 Column_27 Column_28 Column_29 Column_30 Column_31 Column_32 Column_33 Column_34 Column_35 Column_36 Column_37 Column_38 Column_39 Column_40 Column_41 Column_42 Column_43 Column_44 Column_45 Column_46 Column_47 Column_48 Column_49 Column_50 Column_51 Column_52 Column_53 Column_54 Column_55 Column_56 Column_57 Column_58 Column_59 Column_60 Column_61 Column_62 Column_63 Column_64 Column_65 Column_66 Column_67 Column_68 Column_69 Column_70 Column_71 Column_72 Column_73 Column_74 Column_75 Column_76 Column_77 Column_78 Column_79 Column_80 Column_81 Column_82 Column_83 Column_84 Column_85 Column_86 Column_87 Column_88 Column_89 Column_90 Column_91 Column_92 Column_93 Column_94 Column_95 Column_96 Column_97 Column_98 Column_99 Column_100 Column_101 Column_102 Column_103 Column_104 Column_105 Column_106 Column_107 Column_108 Column_109 Column_110 Column_111 Column_112 Column_113 Column_114 Column_115 Column_116 Column_117 Column_118 Column_119 Column_120 Column_121 Column_122 Column_123 Column_124 Column_125 Column_126 Column_127 Column_128 Column_129 Column_130 Column_131 Column_132 Column_133 Column_134 Column_135 Column_136 Column_137 Column_138 Column_139 Column_140 Column_141 Column_142 Column_143 Column_144 Column_145 Column_146 Column_147 Column_148
feature_infos=[-1.8308143259173426:3.6427838400381414] [-2.400723460504496:2.5130482303846517] [-2.0390661498646083:8.1268696552924258] [-4.6445295014051249:3.0663137638648341] [-2.1268731394491125:5.1369709197790128] [-2.4112791294176361:2.6291175484222853] [-3.949781008179265:6.5759344978441057] [-5.8425469346536705:0.64013495104880924] [-5.8504501419434805:0.61787682221825502] [-3.0659921545576028:5.476375212369307] [-2.1782548719663271:3.0177529808736372] [-1.6659537912838798:2.1883760800304919] [-2.8280481563537774:2.3974199441638202] [-2.0113895677286155:1.8906533804816297] [-1.6362566855013594:1.912828362619406] [-1.9501928088132434:2.6241732888208293] [-0.86944741209013432:11.033511960988971] [-0.05843393969148751:0.78462353355950598] [-0.064309993152713088:12.217936758639381] [-4.3899897970980497:2.4600333982433931] [-2.9432208122944776:1.2909750023018376] [-2.2071493352125526:7.3140536658230459] [-6.9818483934698659:2.376104730528199] [-3.8824751731534266:27.86582783018844] [-2.225521598082179:1.6625860088918667] [-1.9972160267127244:5.1467460046614528] [-1.1030501934456887:16.205586453445903] [-1.0539927362556165:15.876208851712962] [-4.5659920235928997:3.6056447641514082] [-2.0557204622032086:4.2530145570823015] [-2.9683668866099908:1.4164641078156353] [-1.9507303797266877:3.690409035804926] [-3.1607639339666065:1.7799205018625051] [-5.9643396056101121:1.7847125457823794] [-1.446399614503705:3.2986287239597836] [-1.5657674491009981:3.5304058136185827] [-3.607000969642701:2.2734675815209391] [-2.5066418528916499:1.492533712640784] [-1.4297964082733015:2.2566718194036262] [-2.9326110973942856:2.6947907562064684] [-20.291402846136407:21.792188049309182] [-5.1815960753535215:3.3223892948212619] [-14.593672067016875:2.2250139224633241] [-5.6986168363504248:2.3279923449256525] [-3.2064612515116657:3.6227642971953289] [-5.6263950583059987:2.9610355156669508] [-4.4796668462707574:3.2140502375860676] [-2.6831262433555443:3.2328200239320743] [-2.9036291540937893:5.1024239735481558] [-3.663927946641953:3.008630387867087] [-1.190161988696683:2.4566932350862722] [-5.8117854073826631:21.575544667554819] [-2.3618627509866639:1.6764475919938617] [-5.8698769749950168:2.6204650936207301] [-1.6960575369586901:3.9290794590386358] [-5.4081783503196501:2.0487351534274429] [-1.6725469729348226:2.9569042874626286] [-1.3584816759779761:3.3487425142318932] [-1.7009583794262246:2.6029858387864593] [-5.10012372565114:3.033211713473785] [-1.9921030506782247:2.104103690541006] [-1.9652850582119952:1.7175804866442392] [-1.369848533768429:2.7714859291998075] [-1.5468916126774996:7.5941052106460347] [-1.5294645190403751:3.3288865995865642] [-2.1839731406557745:1.504976445941101] [-1.5660304890005419:3.7214383706157661] [-3.5677399238926113:2.5129251923831606] [-1.2366430556915664:4.1904809725750605] [-1.6725469538861819:2.9569042580090961] [-1.3584816632210244:3.3487425215862823] [-2.1150750433946732:4.5188528390847331] [-2.8361413334818293:1.5404583858398908] [-0.17642522846649603:5.9230386492216027] [-1.369848533768429:2.7714859291998075] [-1.5404505140213447:2.8361338385689918] [-2.550790717345595:1.7650780063950446] [-5.8810823400934753:0.43527649986791545] [-5.8810823400934753:0.43527649986791545] [-0.70828026084408779:20.919002650918181] [-2.7348859088980366:5.9058239646099908] [-5.481427735251355:1.838392539816663] [-3.9290794590386358:1.6960575369586901] [-0.18234652456919082:5.9229713842572611] [-32.360387317972709:3.9189111035340813] [-1.8018638615158791:2.7426503196947514] [-1.6960575369586901:3.9290794590386358] [-5.9230626645735747:0.17747417325128662] [-5.9230507254362079:0.17813420424753085] [-5.9230832749319093:0.17528296068474286] [-5.9230575494362361:0.17767224050514582] [-5.9230295213295872:0.17924334066058517] [-1.6960575369586901:3.9290794590386358] [-7.5941051349399809:1.5468916143275031] [-1.5468916126774996:7.5941052106460347] [-2.9610355216304853:5.6263950661364941] [-1.6960575369586901:3.9290794590386358] [-2.2857532636230826:6.170644512461064] [-2.742650313054114:1.8018638682469859] [-1.9253458702476938:2.7498281862014267] [-5.7291482517735384:2.3715702620222703] [-5.901185711444624:0.36426205957457269] [-2.9610355216304853:5.6263950661364941] [-2.3585837734418456:1.8669670329338139] [-1.8018638615158791:2.7426503196947514] [-1.4406886965397723:4.132122928853585] [-2.5293961405528029:3.7139254590099471] [-4.9203048565167888:3.6702590661924464] [-1.5629564421797857:5.0713324355966005] [-2.1577495623132092:7.7067179613925036] [-1.5404505140213447:2.8361338385689918] [-1.8544806529303257:2.4702225570745755] [-1.1815033425809247:3.7361060288360619] [-1.5404505140213447:2.8361338385689918] [-1.3538340139630618:2.8140279013576786] [-0.17979871306080689:5.9230546772195449] [-1.2690071572488062:9.0367326700853017] [-6.9355998084519355:7.7670122983370282] [-4.9498454675837191:3.1240583069721963] [-3.7101948362291841:1.1287748546082181] [-1.6693490628937764:3.0289139835783319] [-2.4977812499997847:3.1617383161525239] [-4.4995965167757204:1.8417509793377904] [-1.7990412309318484:3.240415941986472] [-2.5025104895737678:3.7550281234348413] [-4.0201116538997024:2.3316049957380751] [-2.742650313054114:1.8018638682469859] [-3.5047370165815939:2.19069202964701] [-1.7307909916075248:3.4563847026286623] [-3.1780424852416425:1.8951645617345119] [-8.4002389410513985:1.4220326971285908] [-4.9174727591094927:7.7026423296807964] [-1.4444103082313502:5.730149688901542] [-2.9036291540937893:5.1024239735481558] [-2.1294932049913724:7.4272103020017859] [-1.8662446201805578:15.350806208446409] [-1.7126278849347534:3.5703899875920562] [-3.7586320592959122:4.450076933225362] [-7.1230740881609513:2.3617713623210919] [-1.3994636916063456:3.2508326897284974] [-2.7714859395012188:1.3698485332971921] [-7.1090860995690761:15.710245864413395] [-5.1149972568420372:0.79000298768660515] [-25.991383178767467:14.48077148738267] [-1.8018638615158791:2.7426503196947514] [-2.9610355216304853:5.6263950661364941] [-2.7498281788249512:1.9253458619637127] [-1.5629564421797857:5.0713324355966005] [-1.4416671905888325:3.9566848952582951]
tree_sizes=2448 2568 2573 2573 2572 2581 2570 2578 2571 2582 2577 2577 2569 2571 2571 2577 2567 2572 2577 2563 2568 2569 2575 2560 2567 2575 2563 2573 2570 2578 2572 2571 2566 2573 2581 2571 2565 2576 2572 2577 2569 2574 2568 2579 2571 2571 2582 2575 2580 2572 2562 2573 2573 2568 2572 2575 2569 2569 2574 2574 2568 2578 2577 2566 2567 2576 2571 2579 2570 2579 2575 2570 2577 2575 2578 2579 2571 2565 2572 2581 2580 2574 2571 2572 2574 2581 2573 2581 2567 2581 2571 2573 2582 2572 2577 2572 2572 2579 2580 2586 2572 2569 2587 2566 2587 2589 2576 2577 2571 2581 2568 2573 2583 2593 2572 2586 2573 2576 2574 2575 2578 2582 2582 2575 2585 2573 2578 2583 2579 2572 2566 2584 2575 2581 2566 2574 2561 2575 2580 2579 2569 2576 2573 2573 2582 2576 2573 2570 2576 2582 2579 2570 2578 2577 2574 2566 2585 2574 2577 2565 2588 2572 2578 2586 2575 2580 2578 2591 2578 2582 2570 2587 2569 2586 2575 2582 2581 2592 2569 2590 2569 2602 2591 2598 2596 2584 2593 2591 2593 2584 2600 2589 2565 2592 2584 2595 2582 2586 2580 2589 2584 2593 2574 2599 2580 2589 2573 2588 2577 2593 2578 2606 2574 2579 2583 2586 2594 2601 2584 2585 2571 2583 2589 2602 2577 2581 2583 2597 2610 2579 2595 2583 2599 2583 2594 2584 2599 2580 2590 2597 2580 2581 2591 2588

Tree=0
num_leaves=31
num_cat=0
split_feature=30 7 83 16 40 27 40 11 8 148 39 6 71 40 56 16 39 36 21 148 139 42 7 90 8 127 88 7 52 56
split_gain=366.431 158.145 160.195 80.2292 60.5922 39.8565 34.5018 17.2221 15.457 15.2734 4.87602 4.46999 2.01405 1.71653 1.62035 1.32514 1.31515 1.1918 0.997939 0.961665 1.00978 0.911924 0.727409 0.725309 0.603127 0.591904 0.54401 0.529727 0.468755 0.630508
threshold=-0.5355108897826969 -0.069263588307031124 -0.17450158280300657 -0.59042666954936729 -0.017086897919685932 -0.50609041101265451 0.1532433658828645 -1.3103377682358868 0.17537718982072739 0.10425487855760598 0.33946031724375997 -1.1938075186234645 -0.20183822135089619 -0.035158699486956019 -1.1179036153435675 1.0000000180025095e-35 0.75986827048345751 1.5076609083410837 0.51188184381193003 -0.45408546640502107 -0.95940386921410648 -0.020987226852443693 0.044225030691113006 0.17085004816294677 0.12377130422688921 0.84253093564533976 0.17380651821524509 0.044225030691113006 0.58554225951439032 -0.91133721762536701
decision_type=2 2 2 2 2 2 2 2 2 2 2 2 2 2 2 2 2 2 2 2 2 2 2 2 2 2 2 2 2 2
left_child=1 -1 3 6 10 -6 -3 -5 9 -7 13 -9 21 15 27 28 18 22 25 20 -17 23 -13 -10 -22 -16 -24 -12 -2 -30
right_child=4 2 -4 7 5 8 -8 11 12 -11 14 17 -14 -15 16 19 -18 -19 -20 -21 24 -23 26 -25 -26 -27 -28 -29 29 -31
leaf_value=1.2810013929402002 1.2637734112176962 1.2792316537129673 1.282931801530278 1.2713457134359165 1.2734787487182881 1.2715390800712301 1.2700555525781934 1.2681456934004205 1.2642569409920745 1.2661735287004059 1.2633812811743101 1.2663591775178491 1.2636426475541376 1.2650002118920531 1.2626404157128299 1.2637632337519167 1.2624158147214668 1.2670804348988129 1.2641899870523321 1.2634328649268478 1.2657124988436814 1.2660494811452507 1.265141751140177 1.2653662834933779 1.2644992727423645 1.2635705181946375 1.266077578832659 1.264409788599604 1.263901207229134 1.2628092789358263
leaf_count=36 76 21 21 20 20 21 20 30 23 36 31 35 23 36 50 22 104 21 21 23 20 28 44 41 21 26 24 21 20 39
internal_value=0 0.985373 0.687563 0.430074 -0.381797 0.0970251 1.68851 0.133547 -0.0583387 0.367466 -0.562059 0.0201702 -0.26939 -0.465044 -0.660609 -0.498029 -0.701314 -0.0636295 -0.617557 -0.401011 -0.337117 -0.203221 -0.107897 -0.269073 -0.244378 -0.670874 -0.168187 -0.503268 -0.559833 -0.626711
internal_count=974 272 236 215 702 192 41 174 172 57 510 154 115 257 253 221 201 124 97 86 63 92 103 64 41 76 68 52 135 59
shrinkage=1


Tree=1
num_leaves=31
num_cat=0
split_feature=30 7 83 16 40 27 40 11 8 148 39 6 71 40 56 16 39 36 21 148 139 42 7 90 8 127 88 7 52 56
split_gain=362.776 156.568 158.597 79.4289 59.9878 39.4589 34.1576 17.0503 15.3029 15.121 4.82738 4.4254 1.99396 1.69941 1.60419 1.31192 1.30203 1.17992 0.987985 0.952072 0.999711 0.902827 0.720153 0.718074 0.597111 0.586 0.538583 0.524443 0.464079 0.624219
threshold=-0.5355108897826969 -0.069263588307031124 -0.17450158280300657 -0.59042666954936729 -0.017086897919685932 -0.50609041101265451 0.1532433658828645 -1.3103377682358868 0.17537718982072739 0.10425487855760598 0.33946031724375997 -1.1938075186234645 -0.20183822135089619 -0.035158699486956019 -1.1179036153435675 1.0000000180025095e-35 0.75986827048345751 1.5076609083410837 0.51188184381193003 -0.45408546640502107 -0.95940386921410648 -0.020987226852443693 0.044225030691113006 0.17085004816294677 0.12377130422688921 0.84253093564533976 0.17380651821524509 0.044225030691113006 0.58554225951439032 -0.91133721762536701
decision_type=2 2 2 2 2 2 2 2 2 2 2 2 2 2 2 2 2 2 2 2 2 2 2 2 2 2 2 2 2 2
left_child=1 -1 3 6 10 -6 -3 -5 9 -7 13 -9 21 15 27 28 18 22 25 20 -17 23 -13 -10 -22 -16 -24 -12 -2 -30
right_child=4 2 -4 7 5 8 -8 11 12 -11 14 17 -14 -15 16 19 -18 -19 -20 -21 24 -23 26 -25 -26 -27 -28 -29 29 -31
leaf_value=0.014614969984007378 -0.002526871426717231 0.012854079841414378 0.016535727071930611 0.0050075691429665318 0.0071299391537904743 0.0051999689745051529 0.0037238590765045956 0.0018235493780812248 -0.0020457593869903814 -0.00013875458208430146 -0.0029170408652674767 4.5966006283249176e-05 -0.0026569813992018288 -0.0013062048293391449 -0.003654202038049698 -0.0025369980524886739 -0.0038776800459107532 0.0007636170993958201 -0.002112378485146023 -0.0028657150689674459 -0.00059747928380966191 -0.0002621818706393242 -0.0011653732278765264 -0.00094196353295446017 -0.0018046392323005766 -0.0027287500982101148 -0.00023422468470622943 -0.0018936759712440627 -0.0023997144401073458 -0.0034861831634472578
leaf_count=36 76 21 21 20 20 21 20 30 23 36 31 35 23 36 50 22 104 21 21 23 20 28 44 41 21 26 24 21 20 39
internal_value=0 0.980446 0.684125 0.427923 -0.379888 0.0965399 1.68006 0.132879 -0.058047 0.365629 -0.559249 0.0200694 -0.268043 -0.462719 -0.657306 -0.495539 -0.697807 -0.0633114 -0.614469 -0.399006 -0.335432 -0.202204 -0.107357 -0.267728 -0.243156 -0.66752 -0.167347 -0.500752 -0.557034 -0.623578
internal_count=974 272 236 215 702 192 41 174 172 57 510 154 115 257 253 221 201 124 97 86 63 92 103 64 41 76 68 52 135 59
shrinkage=0.005


Tree=2
num_leaves=31
num_cat=0
split_feature=30 7 83 16 40 27 40 11 8 148 39 6 71 40 56 16 39 36 9 148 139 42 41 53 7 90 8 88 7 52
split_gain=359.157 155.006 157.015 78.6366 59.3894 39.0653 33.8169 16.8803 15.1502 14.9702 4.77923 4.38126 1.97407 1.68245 1.58819 1.29884 1.28904 1.16815 0.984681 0.942575 0.989739 0.893821 0.891879 0.784851 0.712969 0.710911 0.591155 0.533211 0.519212 0.45945
threshold=-0.5355108897826969 -0.069263588307031124 -0.17450158280300657 -0.59042666954936729 -0.017086897919685932 -0.50609041101265451 0.1532433658828645 -1.3103377682358868 0.17537718982072739 0.10425487855760598 0.33946031724375997 -1.1938075186234645 -0.20183822135089619 -0.035158699486956019 -1.1179036153435675 1.0000000180025095e-35 0.75986827048345751 1.5076609083410837 0.32408060693215623 -0.45408546640502107 -0.95940386921410648 -0.020987226852443693 0.0065203645845330468 -0.71867011483016974 0.044225030691113006 0.17085004816294677 0.12377130422688921 0.17380651821524509 0.044225030691113006 0.58554225951439032
decision_type=2 2 2 2 2 2 2 2 2 2 2 2 2 2 2 2 2 2 2 2 2 2 2 2 2 2 2 2 2 2
left_child=1 -1 3 6 10 -6 -3 -5 9 -7 13 -9 21 15 28 29 18 24 -16 20 -17 25 23 -20 -13 -10 -22 -26 -12 -2
right_child=4 2 -4 7 5 8 -8 11 12 -11 14 17 -14 -15 16 19 -18 -19 22 -21 26 -23 -24 -25 27 -27 -28 -29 -30 -31
leaf_value=0.014541895190357335 -0.0025142371492754474 0.01278980954949345 0.016453048380180486 0.0049825314414920288 0.0070942898076027626 0.0051739690452814102 0.0037052397185834709 0.001814431549619864 -0.0020355305415780648 -0.00013806078686482378 -0.0029024557048274624 4.5736185940248628e-05 -0.0026436964701861145 -0.0012996737757283781 -0.0039871305769140072 -0.0025243130597201262 -0.0038582916418090463 0.00075979899082865036 -0.0023697621244937179 -0.0028513864654561749 -0.00059449189901351928 -0.00026087098488850253 -0.0019642993532445118 -0.0036323896143585443 -0.0011595463470174846 -0.0009372537250619201 -0.0017956161037797019 -0.00023305354329446952 -0.0018842076190880366 -0.0031022992528091041
leaf_count=36 76 21 21 20 20 21 20 30 23 36 31 35 23 36 22 22 104 21 20 23 20 28 23 32 44 41 21 24 21 59
internal_value=0 0.975544 0.680705 0.425784 -0.377989 0.0960572 1.67166 0.132215 -0.0577568 0.363801 -0.556453 0.019969 -0.266703 -0.460405 -0.654019 -0.493061 -0.694318 -0.0629948 -0.611397 -0.397011 -0.333754 -0.201193 -0.556828 -0.629353 -0.106821 -0.266389 -0.24194 -0.16651 -0.498248 -0.554248
internal_count=974 272 236 215 702 192 41 174 172 57 510 154 115 257 253 221 201 124 97 86 63 92 75 52 103 64 41 68 52 135
shrinkage=0.005


Tree=3
num_leaves=31
num_cat=0
split_feature=30 7 83 16 40 27 40 11 8 148 39 6 71 40 56 16 39 36 9 148 139 42 41 53 7 90 8 88 7 52
split_gain=355.574 153.46 155.449 77.8522 58.797 38.6757 33.4796 16.7119 14.9991 14.8209 4.73155 4.33756 1.95438 1.66567 1.57235 1.28588 1.27618 1.15649 0.974859 0.933173 0.979866 0.884906 0.882983 0.777022 0.705857 0.70382 0.585258 0.527892 0.514033 0.454867
threshold=-0.5355108897826969 -0.069263588307031124 -0.17450158280300657 -0.59042666954936729 -0.017086897919685932 -0.50609041101265451 0.1532433658828645 -1.3103377682358868 0.17537718982072739 0.10425487855760598 0.33946031724375997 -1.1938075186234645 -0.20183822135089619 -0.035158699486956019 -1.1179036153435675 1.0000000180025095e-35 0.75986827048345751 1.5076609083410837 0.32408060693215623 -0.45408546640502107 -0.95940386921410648 -0.020987226852443693 0.0065203645845330468 -0.71867011483016974 0.044225030691113006 0.17085004816294677 0.12377130422688921 0.17380651821524509 0.044225030691113006 0.58554225951439032
decision_type=2 2 2 2 2 2 2 2 2 2 2 2 2 2 2 2 2 2 2 2 2 2 2 2 2 2 2 2 2 2
left_child=1 -1 3 6 10 -6 -3 -5 9 -7 13 -9 21 15 28 29 18 24 -16 20 -17 25 23 -20 -13 -10 -22 -26 -12 -2
right_child=4 2 -4 7 5 8 -8 11 12 -11 14 17 -14 -15 16 19 -18 -19 22 -21 26 -23 -24 -25 27 -27 -28 -29 -30 -31
leaf_value=0.014469185208436102 -0.0025016659341360391 0.012725860640694876 0.016370782490065766 0.0049576186770573264 0.0070588181763887401 0.0051480993699459798 0.0036867135522188621 0.0018053594088026635 -0.0020253528605984608 -0.00013737045926973224 -0.0028879433774179025 4.5507493029747694e-05 -0.0026304779626914986 -0.0012931753925254775 -0.0039671948958526961 -0.0025116915188052435 -0.0038390001747757199 0.00075600001074018928 -0.0023579133171588184 -0.0028371295851209889 -0.00059151941537857061 -0.00025956658912556515 -0.0019544778310734293 -0.0036142276506870986 -0.0011537486721168865 -0.00093256745512651214 -0.0017866379625740506 -0.00023188829434123666 -0.0018747865798927489 -0.0030867877413155672
leaf_count=36 76 21 21 20 20 21 20 30 23 36 31 35 23 36 22 22 104 21 20 23 20 28 23 32 44 41 21 24 21 59
internal_value=0 0.970666 0.677301 0.423655 -0.376099 0.095577 1.6633 0.131554 -0.057468 0.361982 -0.553671 0.0198692 -0.265369 -0.458103 -0.650749 -0.490596 -0.690847 -0.0626798 -0.60834 -0.395026 -0.332086 -0.200187 -0.554044 -0.626206 -0.106286 -0.265057 -0.240731 -0.165677 -0.495757 -0.551477
internal_count=974 272 236 215 702 192 41 174 172 57 510 154 115 257 253 221 201 124 97 86 63 92 75 52 103 64 41 68 52 135
shrinkage=0.005


Tree=4
num_leaves=31
num_cat=0
split_feature=30 7 83 16 40 27 40 11 8 148 39 6 71 40 56 16 39 36 21 148 139 42 7 90 8 127 88 7 52 56
split_gain=352.028 151.929 153.899 77.0756 58.2105 38.2899 33.1456 16.5452 14.8495 14.673 4.68436 4.29429 1.93488 1.64906 1.55666 1.27305 1.26346 1.14496 0.969462 0.923865 0.970092 0.876079 0.698816 0.696799 0.57942 0.575658 0.522626 0.508906 0.45033 0.617992
threshold=-0.5355108897826969 -0.069263588307031124 -0.17450158280300657 -0.59042666954936729 -0.017086897919685932 -0.50609041101265451 0.1532433658828645 -1.3103377682358868 0.17537718982072739 0.10425487855760598 0.33946031724375997 -1.1938075186234645 -0.20183822135089619 -0.035158699486956019 -1.1179036153435675 1.0000000180025095e-35 0.75986827048345751 1.5076609083410837 0.51188184381193003 -0.45408546640502107 -0.95940386921410648 -0.020987226852443693 0.044225030691113006 0.17085004816294677 0.12377130422688921 0.84253093564533976 0.17380651821524509 0.044225030691113006 0.58554225951439032 -0.91133721762536701
decision_type=2 2 2 2 2 2 2 2 2 2 2 2 2 2 2 2 2 2 2 2 2 2 2 2 2 2 2 2 2 2
left_child=1 -1 3 6 10 -6 -3 -5 9 -7 13 -9 21 15 27 28 18 22 25 20 -17 23 -13 -10 -22 -16 -24 -12 -2 -30
right_child=4 2 -4 7 5 8 -8 11 12 -11 14 17 -14 -15 16 19 -18 -19 -20 -21 24 -23 26 -25 -26 -27 -28 -29 29 -31
leaf_value=0.014396839338846296 -0.0024891576053280577 0.012662231319672651 0.016288928608077444 0.0049328306759707629 0.0070235243979841471 0.0051223588663907287 0.0036682799500413238 0.0017963325977325439 -0.0020152261383507564 -0.00013668358869229754 -0.0028735036811520977 4.5279958152345251e-05 -0.002617325587603061 -0.0012867095820709234 -0.0036030425667762755 -0.0024991330741481349 -0.0038198052346706392 0.00075222005269357146 -0.00207556469277257 -0.0028229439226181612 -0.00058856183290481568 -0.00025826877382184777 -0.0011479798721054314 -0.00092790460519963966 -0.0017777047732046671 -0.0026857929160961735 -0.00023072885746538912 -0.0018654126230449903 -0.0023567704260349272 -0.0034378067575968232
leaf_count=36 76 21 21 20 20 21 20 30 23 36 31 35 23 36 50 22 104 21 21 23 20 28 44 41 21 26 24 21 20 39
internal_value=0 0.965813 0.673915 0.421537 -0.374218 0.0950991 1.65499 0.130896 -0.0571807 0.360172 -0.550902 0.0197699 -0.264042 -0.455813 -0.647495 -0.488143 -0.687392 -0.0623664 -0.605298 -0.39305 -0.330425 -0.199187 -0.105755 -0.263732 -0.239527 -0.657849 -0.164849 -0.493278 -0.54872 -0.614271
internal_count=974 272 236 215 702 192 41 174 172 57 510 154 115 257 253 221 201 124 97 86 63 92 103 64 41 76 68 52 135 59
shrinkage=0.005


Tree=5
num_leaves=31
num_cat=0
split_feature=30 7 83 16 40 27 40 124 8 148 6 39 71 40 56 16 39 9 148 139 41 42 53 90 8 7 107 2 47 52
split_gain=348.516 150.414 152.363 76.3068 57.6298 37.9079 32.815 16.4182 14.7014 14.5267 6.18402 4.63763 1.91558 1.63261 1.54113 1.26035 1.25085 0.96259 0.914649 0.960415 0.874997 0.86734 0.764485 0.689849 0.57364 0.503829 0.477115 0.557303 0.540622 0.445838
threshold=-0.5355108897826969 -0.069263588307031124 -0.17450158280300657 -0.59042666954936729 -0.017086897919685932 -0.50609041101265451 0.1532433658828645 2.3929202429955745 0.17537718982072739 0.10425487855760598 -1.1938075186234645 0.33946031724375997 -0.20183822135089619 -0.035158699486956019 -1.1179036153435675 1.0000000180025095e-35 0.75986827048345751 0.32408060693215623 -0.45408546640502107 -0.95940386921410648 0.0065203645845330468 -0.020987226852443693 -0.71867011483016974 0.17085004816294677 0.12377130422688921 0.044225030691113006 -0.18523396761373037 -0.35784198893124575 0.84692928864353745 0.58554225951439032
decision_type=2 2 2 2 2 2 2 2 2 2 2 2 2 2 2 2 2 2 2 2 2 2 2 2 2 2 2 2 2 2
left_child=1 -1 3 6 11 -6 -3 10 9 -7 -5 13 21 15 25 29 17 -16 19 -17 22 23 -19 -10 -21 -13 27 -12 -29 -2
right_child=4 2 -4 7 5 8 -8 -9 12 -11 26 14 -14 -15 16 18 -18 20 -20 24 -22 -23 -24 -25 -26 -27 -28 28 -30 -31
leaf_value=0.014324855257032648 -0.0024767118481625067 0.012598919876472792 0.016207483941689135 0.0019457113225807383 0.0069884063601493842 0.0050967469634044735 0.0036499386839568618 0.0046882986189501191 -0.0020051499861090082 -0.00013600013503390883 -0.00079750179388635861 -0.0028591361449610804 -0.0026042388703512108 -0.0012802759661442703 -0.0039310114492069597 -0.0024866373735395347 -0.0038007061321359988 -0.0023339132741093636 -0.0028088292252758276 -0.0005856190249323845 -0.0019295477526991265 -0.00025697743786232813 -0.0035800512693822386 -0.00092326510980123336 -0.0017688162447441192 -0.0018560855711499849 -0.0011206215871093065 -0.00060764118039831219 0.0003791674274585343 -0.0030559970312199355
leaf_count=36 76 21 21 34 20 21 20 22 23 36 37 31 23 36 22 22 104 20 23 20 23 28 32 41 21 21 23 23 35 59
internal_value=0 0.960984 0.670545 0.419429 -0.372347 0.0946236 1.64671 0.130241 -0.0568948 0.358371 0.0133782 -0.548148 -0.262722 -0.453533 -0.644258 -0.485702 -0.683955 -0.602272 -0.391085 -0.328773 -0.548319 -0.198191 -0.620153 -0.262413 -0.238329 -0.490812 -0.0948928 -0.0636052 -0.00243065 -0.545976
internal_count=974 272 236 215 702 192 41 174 172 57 152 510 115 257 253 221 201 97 86 63 75 92 52 64 41 52 118 95 58 135
shrinkage=0.005


Tree=6
num_leaves=31
num_cat=0
split_feature=30 7 83 16 40 27 40 11 8 148 39 6 71 40 56 16 39 36 21 148 139 42 7 90 8 127 88 7 52 56
split_gain=345.04 148.913 150.844 75.5456 57.055 37.5298 32.4877 16.2895 14.5547 14.3818 4.59137 4.2021 1.89647 1.61632 1.52576 1.24778 1.23837 1.11673 0.955544 0.905525 0.950835 0.858688 0.688931 0.682967 0.567918 0.567704 0.518071 0.498803 0.44139 0.611828
threshold=-0.5355108897826969 -0.069263588307031124 -0.17450158280300657 -0.59042666954936729 -0.017086897919685932 -0.50609041101265451 0.1532433658828645 -1.3103377682358868 0.17537718982072739 0.10425487855760598 0.33946031724375997 -1.1938075186234645 -0.20183822135089619 -0.035158699486956019 -1.1179036153435675 1.0000000180025095e-35 0.75986827048345751 1.5076609083410837 0.51188184381193003 -0.45408546640502107 -0.95940386921410648 -0.020987226852443693 0.044225030691113006 0.17085004816294677 0.12377130422688921 0.84253093564533976 0.17380651821524509 0.044225030691113006 0.58554225951439032 -0.91133721762536701
decision_type=2 2 2 2 2 2 2 2 2 2 2 2 2 2 2 2 2 2 2 2 2 2 2 2 2 2 2 2 2 2
left_child=1 -1 3 6 10 -6 -3 -5 9 -7 13 -9 21 15 27 28 18 22 25 20 -17 23 -13 -10 -22 -16 -24 -12 -2 -30
right_child=4 2 -4 7 5 8 -8 11 12 -11 14 17 -14 -15 16 19 -18 -19 -20 -21 24 -23 26 -25 -26 -27 -28 -29 29 -31
leaf_value=0.014253231653322776 -0.0024643282670723764 0.012535925287354206 0.016126446475585303 0.0048931145248934625 0.0069534647762775426 0.0050712631217070996 0.0036316890232264997 0.0017757940402564904 -0.0019951242419040723 -0.00013532018521800638 -0.0028448404804352792 4.6110560851437704e-05 -0.0025912177967636479 -0.0012738746365842722 -0.0035687847465276719 -0.0024742041460492394 -0.0037817026533258076 0.00074123375472568342 -0.0020522263770302138 -0.0027947849909896439 -0.0005826909020543099 -0.00025569255995963299 -0.0011395634708630743 -0.00091864875040766666 -0.0017599722281807944 -0.0026578945122086085 -0.00022631839490107569 -0.0018468051297324045 -0.0023297065347433091 -0.0034053377234018766
leaf_count=36 76 21 21 20 20 21 20 30 23 36 31 35 23 36 50 22 104 21 21 23 20 28 44 41 21 26 24 21 20 39
internal_value=0 0.956179 0.667192 0.417332 -0.370485 0.0941505 1.63848 0.12959 -0.0566103 0.356579 -0.545407 0.0193262 -0.261408 -0.451266 -0.641037 -0.483273 -0.680536 -0.0619236 -0.59926 -0.38913 -0.327129 -0.1972 -0.104774 -0.261101 -0.237138 -0.651433 -0.163448 -0.488358 -0.543246 -0.608143
internal_count=974 272 236 215 702 192 41 174 172 57 510 154 115 257 253 221 201 124 97 86 63 92 103 64 41 76 68 52 135 59
shrinkage=0.005


Tree=7
num_leaves=31
num_cat=0
split_feature=30 7 83 16 40 27 40 124 8 148 6 39 71 40 56 16 39 9 148 139 41 42 53 90 8 7 107 2 47 52
split_gain=341.598 147.428 149.339 74.792 56.4858 37.1554 32.1636 16.1668 14.4095 14.2383 6.05131 4.54557 1.87756 1.6002 1.51054 1.23534 1.22602 0.950477 0.896493 0.941351 0.867081 0.850123 0.752145 0.676155 0.562253 0.493828 0.475112 0.551454 0.533812 0.436987
threshold=-0.5355108897826969 -0.069263588307031124 -0.17450158280300657 -0.59042666954936729 -0.017086897919685932 -0.50609041101265451 0.1532433658828645 2.3929202429955745 0.17537718982072739 0.10425487855760598 -1.1938075186234645 0.33946031724375997 -0.20183822135089619 -0.035158699486956019 -1.1179036153435675 1.0000000180025095e-35 0.75986827048345751 0.32408060693215623 -0.45408546640502107 -0.95940386921410648 0.0065203645845330468 -0.020987226852443693 -0.71867011483016974 0.17085004816294677 0.12377130422688921 0.044225030691113006 -0.18523396761373037 -0.35784198893124575 0.84692928864353745 0.58554225951439032
decision_type=2 2 2 2 2 2 2 2 2 2 2 2 2 2 2 2 2 2 2 2 2 2 2 2 2 2 2 2 2 2
left_child=1 -1 3 6 11 -6 -3 10 9 -7 -5 13 21 15 25 29 17 -16 19 -17 22 23 -19 -10 -21 -13 27 -12 -29 -2
right_child=4 2 -4 7 5 8 -8 -9 12 -11 26 14 -14 -15 16 18 -18 20 -20 24 -22 -23 -24 -25 -26 -27 -28 28 -30 -31
leaf_value=0.014181964866454818 -0.0024520066243253254 0.012473245502582617 0.01604581387979644 0.0019234363622415594 0.0069186971439048651 0.0050459068836200809 0.0036135306134819985 0.004650774376297539 -0.0019851486320080964 -0.00013464353331882093 -0.00079147234105983303 -0.0028306163030285994 -0.0025782616234020046 -0.0012675052649703704 -0.0038951686024665832 -0.0024618331342935564 -0.003762794154552886 -0.0023101632334291936 -0.0027808111468734949 -0.00057977748848497867 -0.001904893742631311 -0.00025441404432058334 -0.0035462034586817028 -0.00091405551846525292 -0.0017511723048630216 -0.0018375710859185174 -0.0011154280222304489 -0.0006019807346266411 0.00037859261849163364 -0.0030255134125887341
leaf_count=36 76 21 21 34 20 21 20 22 23 36 37 31 23 36 22 22 104 20 23 20 23 28 32 41 21 21 23 23 35 59
internal_value=0 0.951398 0.663856 0.415245 -0.368633 0.0936797 1.63029 0.128942 -0.0563272 0.354796 0.0129772 -0.54268 -0.260101 -0.449009 -0.637831 -0.480857 -0.677133 -0.596264 -0.387184 -0.325494 -0.542652 -0.196214 -0.614161 -0.259796 -0.235952 -0.485916 -0.0941257 -0.0629038 -0.00205109 -0.54053
internal_count=974 272 236 215 702 192 41 174 172 57 152 510 115 257 253 221 201 97 86 63 75 92 52 64 41 52 118 95 58 135
shrinkage=0.005


Tree=8
num_leaves=31
num_cat=0
split_feature=30 7 83 16 40 27 40 11 8 148 39 6 71 40 56 16 39 36 21 148 139 42 7 90 127 8 88 7 52 56
split_gain=338.191 145.957 147.849 74.046 55.9224 36.7848 31.8428 16.0378 14.2658 14.0963 4.50023 4.11187 1.85883 1.58424 1.49547 1.22301 1.21379 1.08912 0.941833 0.88755 0.931961 0.841643 0.67918 0.66941 0.559856 0.556645 0.513558 0.488902 0.432628 0.605725
threshold=-0.5355108897826969 -0.069263588307031124 -0.17450158280300657 -0.59042666954936729 -0.017086897919685932 -0.50609041101265451 0.1532433658828645 -1.3103377682358868 0.17537718982072739 0.10425487855760598 0.33946031724375997 -1.1938075186234645 -0.20183822135089619 -0.035158699486956019 -1.1179036153435675 1.0000000180025095e-35 0.75986827048345751 1.5076609083410837 0.51188184381193003 -0.45408546640502107 -0.95940386921410648 -0.020987226852443693 0.044225030691113006 0.17085004816294677 0.84253093564533976 0.12377130422688921 0.17380651821524509 0.044225030691113006 0.58554225951439032 -0.91133721762536701
decision_type=2 2 2 2 2 2 2 2 2 2 2 2 2 2 2 2 2 2 2 2 2 2 2 2 2 2 2 2 2 2
left_child=1 -1 3 6 10 -6 -3 -5 9 -7 13 -9 21 15 27 28 18 22 24 20 -17 23 -13 -10 -16 -22 -24 -12 -2 -30
right_child=4 2 -4 7 5 8 -8 11 12 -11 14 17 -14 -15 16 19 -18 -19 -20 -21 25 -23 26 -25 -26 -27 -28 -29 29 -31
leaf_value=0.014111055338548289 -0.0024397466150357537 0.012410879493469284 0.015965584928690945 0.0048537329747341575 0.0068841039943508811 0.0050206773976484934 0.0035954629275947807 0.0017554796760280928 -0.0019752228648766226 -0.00013397036560086742 -0.0028164631801266826 4.692464760903801e-05 -0.0025653703302225988 -0.0012611676793959407 -0.0035348569720983504 -0.0024495240588757127 -0.0037439800823967045 0.0007303600917969432 -0.0020291359598437943 -0.0027669070061782132 -0.00057687859982252126 -0.0002531420120171138 -0.0011312108430634412 -0.00090948525748056608 -0.0026302845546832456 -0.0017424164605992182 -0.00022195238700078334 -0.0018283832374782788 -0.0023029305040836337 -0.0033731834876995822
leaf_count=36 76 21 21 20 20 21 20 30 23 36 31 35 23 36 50 22 104 21 21 23 20 28 44 41 26 21 24 21 20 39
internal_value=0 0.946641 0.660537 0.413169 -0.36679 0.0932113 1.62214 0.128298 -0.0560456 0.353022 -0.539967 0.0188885 -0.258801 -0.446764 -0.634642 -0.478453 -0.673747 -0.0614842 -0.593283 -0.385248 -0.323866 -0.195233 -0.103801 -0.258497 -0.64508 -0.234772 -0.162059 -0.483486 -0.537827 -0.602077
internal_count=974 272 236 215 702 192 41 174 172 57 510 154 115 257 253 221 201 124 97 86 63 92 103 64 76 41 68 52 135 59
shrinkage=0.005


Tree=9
num_leaves=31
num_cat=0
split_feature=30 7 83 16 40 27 40 124 8 148 6 39 71 40 56 16 39 9 148 139 41 42 53 90 8 7 107 2 47 52
split_gain=334.817 144.501 146.374 73.3074 55.3646 36.4179 31.5252 15.9193 14.1235 13.9557 5.92136 4.45534 1.84028 1.56844 1.48056 1.21081 1.20168 0.938519 0.878697 0.922664 0.859234 0.833247 0.740001 0.662733 0.551092 0.484025 0.473107 0.545655 0.527093 0.428313
threshold=-0.5355108897826969 -0.069263588307031124 -0.17450158280300657 -0.59042666954936729 -0.017086897919685932 -0.50609041101265451 0.1532433658828645 2.3929202429955745 0.17537718982072739 0.10425487855760598 -1.1938075186234645 0.33946031724375997 -0.20183822135089619 -0.035158699486956019 -1.1179036153435675 1.0000000180025095e-35 0.75986827048345751 0.32408060693215623 -0.45408546640502107 -0.95940386921410648 0.0065203645845330468 -0.020987226852443693 -0.71867011483016974 0.17085004816294677 0.12377130422688921 0.044225030691113006 -0.18523396761373037 -0.35784198893124575 0.84692928864353745 0.58554225951439032
decision_type=2 2 2 2 2 2 2 2 2 2 2 2 2 2 2 2 2 2 2 2 2 2 2 2 2 2 2 2 2 2
left_child=1 -1 3 6 11 -6 -3 10 9 -7 -5 13 21 15 25 29 17 -16 19 -17 22 23 -19 -10 -21 -13 27 -12 -29 -2
right_child=4 2 -4 7 5 8 -8 -9 12 -11 26 14 -14 -15 16 18 -18 20 -20 24 -22 -23 -24 -25 -26 -27 -28 28 -30 -31
leaf_value=0.014040500000903396 -0.0024275478590769987 0.012348825323971965 0.015885757221618578 0.0019013968208695159 0.0068496835012920197 0.0049955741493474875 0.0035774854188784957 0.0046135654626414183 -0.0019653467769208161 -0.00013330051778919169 -0.00078548318077180834 -0.0028023809098428293 -0.0025525434525764507 -0.0012548618265686351 -0.003859663118015636 -0.0024372763813219288 -0.0037252602434287279 -0.0022866604048758748 -0.002753072470102621 -0.00057399417646229267 -0.0018805127420827097 -0.00025187630738530839 -0.0035126812802627684 -0.00090493782639230905 -0.0017337043512435186 -0.0018192413289632118 -0.0011102612227525401 -0.00059637435661304909 0.00037800882620337816 -0.0029953339973748739
leaf_count=36 76 21 21 34 20 21 20 22 23 36 37 31 23 36 22 22 104 20 23 20 23 28 32 41 21 21 23 23 35 59
internal_value=0 0.941908 0.657234 0.411103 -0.364956 0.0927453 1.61402 0.127656 -0.0557654 0.351257 0.012582 -0.537267 -0.257507 -0.444531 -0.631469 -0.47606 -0.670379 -0.590316 -0.383322 -0.322247 -0.537042 -0.194256 -0.608227 -0.257204 -0.233598 -0.481069 -0.0933647 -0.0622088 -0.0016769 -0.535138
internal_count=974 272 236 215 702 192 41 174 172 57 152 510 115 257 253 221 201 97 86 63 75 92 52 64 41 52 118 95 58 135
shrinkage=0.005


Tree=10
num_leaves=31
num_cat=0
split_feature=77 7 87 16 40 1 7 137 27 21 109 115 3 23 52 40 128 44 16 73 112 55 135 30 127 121 61 105 107 21
split_gain=331.731 227.924 91.8821 78.2886 47.1272 31.02 40.8067 46.3829 28.5995 16.2842 15.5935 6.28191 3.54062 2.13829 1.72935 1.34423 1.30045 1.78424 1.08136 0.972898 0.959792 0.817852 0.712257 0.697049 0.678094 0.791683 0.554879 0.529258 0.472868 0.927723
threshold=0.22896578668996434 -0.069263588307031124 0.17137143836909532 -0.59042666954936729 -0.02936889065802702 -0.41032929486369019 0.30254367835178414 -0.82169941342986752 1.6718084218840159 -1.3200433467496075 -0.17480179907405916 -0.17359817197566055 0.024626024147246146 -0.26463847008531155 0.5679173445973652 0.0090187833721282109 -0.24878150211850417 -0.38168590892334719 0.13538574824746144 -0.16861082740028363 0.58190242459081143 0.18556101959302956 -0.21711203985674574 0.15687773064456462 0.96234697877488318 -1.6783145692724717 -0.99449491234558896 -0.70609901726211455 -0.45320589714141318 -0.99605318109781182
decision_type=2 2 2 2 2 2 2 2 2 2 2 2 2 2 2 2 2 2 2 2 2 2 2 2 2 2 2 2 2 2
left_child=4 -2 -3 8 12 6 7 -6 -4 10 -5 -11 18 -7 -14 -15 17 24 19 -1 -13 -20 -23 -17 -16 -26 -21 -28 29 -22
right_child=1 2 3 9 5 13 -8 -9 -10 11 -12 20 14 15 16 23 -18 -19 21 26 28 22 -24 -25 25 -27 27 -29 -30 -31
leaf_value=-0.0018601409990239787 0.018049216997211001 0.011956970733948625 0.012133417293344708 0.00058615743845271383 0.0012539870278150947 0.00012754515814594923 -0.0020960168008293425 0.011300167091714684 0.0039758118042456251 0.0019244503087749512 0.0063057363289408391 -0.0015042487426264281 -0.0017954515528288625 -0.0026685658454895017 -0.0018970189039551077 -0.0016059825645248977 -0.0040352029242414116 -0.003741133306453477 -0.0024299268389271723 -0.0021332903988659385 -0.00087468207848292805 -0.0021225925433364782 -0.00092037536935614687 -0.00053249321389012044 -0.002237552862614393 -0.0032380421270198864 -0.0027041952262322104 -0.0035175660277406372 -0.00097749375841683808 0.00036674931521274093
leaf_count=37 28 26 22 26 27 20 28 20 21 29 22 27 21 25 21 62 47 67 37 25 27 22 28 20 30 58 60 30 27 34
internal_value=0 0.898483 0.607609 0.410254 -0.379068 0.0265233 0.53646 1.10579 1.62989 0.137106 0.641526 -0.0310346 -0.548694 -0.274621 -0.633431 -0.330719 -0.659265 -0.619803 -0.462185 -0.513074 -0.13592 -0.373275 -0.28987 -0.268831 -0.540863 -0.579393 -0.558454 -0.595064 -0.0853165 -0.0365473
internal_count=974 289 261 235 685 202 75 47 43 192 48 144 483 127 244 107 223 176 239 152 115 87 50 82 109 88 115 90 88 61
shrinkage=0.005


Tree=11
num_leaves=31
num_cat=0
split_feature=77 7 87 16 40 1 7 137 27 21 109 115 3 23 52 40 128 44 16 73 112 55 135 30 127 121 61 105 107 21
split_gain=328.422 225.65 90.9656 77.5076 46.6571 30.7106 40.3996 45.9202 28.3143 16.1217 15.4379 6.21925 3.50531 2.11696 1.7121 1.33083 1.28748 1.76644 1.07057 0.963193 0.950218 0.809694 0.705152 0.690096 0.67133 0.783786 0.549344 0.523978 0.468151 0.918469
threshold=0.22896578668996434 -0.069263588307031124 0.17137143836909532 -0.59042666954936729 -0.02936889065802702 -0.41032929486369019 0.30254367835178414 -0.82169941342986752 1.6718084218840159 -1.3200433467496075 -0.17480179907405916 -0.17359817197566055 0.024626024147246146 -0.26463847008531155 0.5679173445973652 0.0090187833721282109 -0.24878150211850417 -0.38168590892334719 0.13538574824746144 -0.16861082740028363 0.58190242459081143 0.18556101959302956 -0.21711203985674574 0.15687773064456462 0.96234697877488318 -1.6783145692724717 -0.99449491234558896 -0.70609901726211455 -0.45320589714141318 -0.99605318109781182
decision_type=2 2 2 2 2 2 2 2 2 2 2 2 2 2 2 2 2 2 2 2 2 2 2 2 2 2 2 2 2 2
left_child=4 -2 -3 8 12 6 7 -6 -4 10 -5 -11 18 -7 -14 -15 17 24 19 -1 -13 -20 -23 -17 -16 -26 -21 -28 29 -22
right_child=1 2 3 9 5 13 -8 -9 -10 11 -12 20 14 15 16 23 -18 -19 21 26 28 22 -24 -25 25 -27 27 -29 -30 -31
leaf_value=-0.0018508402902532267 0.017958970532553006 0.011897185805898448 0.012072750475807963 0.00058322667197969092 0.0012477170662195595 0.00012690742232371121 -0.002085536705063922 0.011243666318710894 0.0039559326861940683 0.0019148280607673926 0.0062742076346396728 -0.0014967275128044463 -0.0017864742977101178 -0.0026552230358123782 -0.0018875337906536602 -0.0015979526531431946 -0.0040150269422125308 -0.0037224276675217188 -0.0024177771610384051 -0.0021226238764822485 -0.00087030869977617708 -0.0021119795434854246 -0.00091577347501048032 -0.00052983073401264853 -0.002226365072031816 -0.0032218519033029164 -0.0026906742751598356 -0.0034999782020847005 -0.00097260629896212512 0.00036491557761859016
leaf_count=37 28 26 22 26 27 20 28 20 21 29 22 27 21 25 21 62 47 67 37 25 27 22 28 20 30 58 60 30 27 34
internal_value=0 0.893991 0.604571 0.408203 -0.377173 0.0263906 0.533778 1.10026 1.62174 0.13642 0.638319 -0.0308795 -0.545951 -0.273247 -0.630263 -0.329066 -0.655969 -0.616704 -0.459874 -0.510509 -0.13524 -0.371409 -0.288421 -0.267487 -0.538159 -0.576496 -0.555662 -0.592088 -0.0848899 -0.0363646
internal_count=974 289 261 235 685 202 75 47 43 192 48 144 483 127 244 107 223 176 239 152 115 87 50 82 109 88 115 90 88 61
shrinkage=0.005


Tree=12
num_leaves=31
num_cat=0
split_feature=30 7 83 16 40 27 40 11 8 148 39 6 71 16 52 56 39 65 51 16 73 9 41 42 116 139 53 90 40 7
split_gain=325.353 140.331 143.708 71.2592 53.6718 35.4482 31.0543 15.6402 13.7802 13.7707 4.31765 3.98631 1.78788 1.52866 2.02565 1.44558 1.16784 1.15346 1.05856 1.42093 0.996214 0.931728 0.843629 0.803918 0.737582 0.731167 0.721401 0.660301 0.606004 0.479817
threshold=-0.5355108897826969 -0.069263588307031124 -0.17450158280300657 -0.59042666954936729 -0.017086897919685932 -0.50609041101265451 0.1532433658828645 -1.3103377682358868 0.17537718982072739 0.10425487855760598 0.33946031724375997 -1.1938075186234645 -0.20183822135089619 -0.012943827760000953 0.4366372636318237 -1.1179036153435675 0.75986827048345751 0.68213097050129312 0.034549340958155268 -0.47422929918888984 -0.16861082740028363 0.32408060693215623 0.0065203645845330468 -0.020987226852443693 0.021726144243896583 -0.95940386921410648 -0.71867011483016974 0.17085004816294677 0.14353061669669984 0.044225030691113006
decision_type=2 2 2 2 2 2 2 2 2 2 2 2 2 2 2 2 2 2 2 2 2 2 2 2 2 2 2 2 2 2
left_child=1 -1 3 6 10 -6 -3 -5 9 -7 13 -9 23 20 -15 29 21 -16 28 -20 24 -17 26 27 -2 -19 -23 -10 -13 -12
right_child=4 2 -4 7 5 8 -8 11 12 -11 15 18 -14 14 17 16 -18 25 19 -21 -22 22 -24 -25 -26 -27 -28 -29 -30 -31
leaf_value=0.01383783056310171 -0.0012331197804517368 0.01219704890889781 0.015724098201663723 0.0047828315951628612 0.0067548092305660251 0.0049498261901594343 0.0034914591236738491 0.0017183931445082028 -0.0019500415820790373 -0.00014495105896559027 -0.0027630028657374844 -0.0011400390429318779 -0.0025213957667026832 -0.00031650581707557047 -0.0029499481320381165 -0.0038131541961973366 -0.0036710710087432888 -0.0023655823888257149 0.0011304353353140566 -0.00065049415055130205 -0.0027709162040209434 -0.002250703520141542 -0.0018456014043287093 -0.000256182056785162 -0.0024080666636719424 -0.0011228939383451282 -0.0034612178103998305 -0.00089157979713934594 -0.00026074186628373056 -0.0017841462400697528
leaf_count=36 22 21 21 20 20 21 20 30 23 36 31 36 23 21 25 22 104 20 24 21 106 20 23 28 34 29 32 41 43 21
internal_value=0 0.9285 0.647965 0.404086 -0.359761 0.0908889 1.59008 0.124627 -0.0556312 0.346414 -0.529417 0.0165825 -0.254906 -0.438125 -0.337412 -0.622152 -0.6606 -0.415201 -0.0625536 0.059867 -0.497185 -0.581673 -0.528592 -0.192563 -0.389296 -0.326023 -0.599127 -0.254393 -0.132287 -0.473539
internal_count=974 272 236 215 702 192 41 174 172 57 510 154 115 257 95 253 201 74 124 45 162 97 75 92 56 49 52 64 79 52
shrinkage=0.005


Tree=13
num_leaves=31
num_cat=0
split_feature=77 7 87 16 84 1 27 8 21 109 12 115 19 64 16 16 16 37 134 112 3 23 59 3 1 107 21 36 116 2
split_gain=322.271 221.838 89.5023 76.0696 45.7227 38.6428 27.98 16.9037 15.8756 15.2211 7.23827 6.14771 3.11441 2.56905 1.79492 1.26149 1.25121 1.03554 1.19387 0.955662 0.785552 0.783953 0.608021 0.490883 0.536601 0.467152 0.911952 0.438084 0.418855 0.751874
threshold=0.22896578668996434 -0.069263588307031124 0.17137143836909532 -0.59042666954936729 -0.013194218961969427 -0.70208399093098184 1.6718084218840159 0.16774417900071434 -1.3200433467496075 -0.17480179907405916 -0.35954061938272741 -0.17359817197566055 0.65739808921907872 -0.73577392634039451 -0.064142713759908349 -0.3304321388488089 -0.13542673808177838 -1.822804411727472 -0.7024379246811624 0.58190242459081143 -1.1803622422875351 -0.034127274472807702 -0.42126486111764588 0.41654957488209537 -0.64653088806867498 -0.45320589714141318 -0.99605318109781182 -1.1687739156493031 -0.65041226392229479 0.18110819647957574
decision_type=2 2 2 2 2 2 2 2 2 2 2 2 2 2 2 2 2 2 2 2 2 2 2 2 2 2 2 2 2 2
left_child=4 -2 -3 6 5 -1 -4 -7 9 -5 12 -10 14 16 20 21 -12 -15 22 -13 -6 -9 -19 24 27 26 -21 -20 -18 -30
right_child=1 2 3 8 10 7 -8 15 11 -11 13 19 -14 17 -16 -17 28 18 23 25 -22 -23 -24 -25 -26 -27 -28 -29 29 -31
leaf_value=0.0068684207328728267 0.017802484054118394 0.011795743231016856 0.011970886478441323 0.00057319697100096029 -0.0026288956661962648 0.0033329795518269138 0.0039021137010838303 -0.0013298388680953893 0.0019001177446675841 0.0062240763788048003 -0.0029549673607107254 -0.0014988384160420133 0.0003513377364724875 -0.0021788305692050768 -0.00063336549947659181 -0.00025913509487343779 -0.0025643167441012338 -0.0020135885703822841 -0.0029996334319002927 -0.00086716425329170848 -0.0015575775598907578 -0.0024682814441621304 -0.0031296208357581724 -0.0038167285190328312 -0.0027796390352563729 -0.00097106443338648046 0.000363669869623075 -0.0038464524561450599 -0.0013222816329011146 -0.0022983870857415049
leaf_count=21 28 26 22 26 44 24 21 62 29 22 64 27 20 23 24 22 32 23 24 27 28 20 26 69 36 27 34 42 34 47
internal_value=0 0.88558 0.598616 0.403833 -0.373624 0.116392 1.60606 -0.089883 0.134584 0.632637 -0.509841 -0.0314342 -0.28872 -0.570913 -0.363509 -0.264455 -0.479274 -0.637662 -0.658769 -0.135193 -0.442454 -0.321502 -0.521154 -0.698203 -0.654136 -0.0846986 -0.0362251 -0.707704 -0.416 -0.377733
internal_count=974 289 261 235 685 149 43 128 192 48 536 144 116 420 96 104 177 243 220 115 72 82 49 171 102 88 61 66 113 81
shrinkage=0.005


Tree=14
num_leaves=31
num_cat=0
split_feature=30 7 83 16 40 27 40 11 8 148 39 6 71 16 52 56 39 65 51 16 73 9 41 84 134 139 116 53 40 30
split_gain=319.108 137.601 141.684 69.9079 52.6351 34.8323 30.6675 15.4115 13.4986 13.6288 4.22095 3.92891 1.75751 1.50629 1.99013 1.42215 1.14232 1.14069 1.04087 1.40438 0.96746 0.928436 0.833624 0.805375 1.29877 0.719711 0.718672 0.711445 0.601095 0.477174
threshold=-0.5355108897826969 -0.069263588307031124 -0.17450158280300657 -0.59042666954936729 -0.017086897919685932 -0.50609041101265451 0.1532433658828645 -1.3103377682358868 0.17537718982072739 0.10425487855760598 0.33946031724375997 -1.1938075186234645 -0.20183822135089619 -0.012943827760000953 0.4366372636318237 -1.1179036153435675 0.75986827048345751 0.68213097050129312 0.034549340958155268 -0.47422929918888984 -0.16861082740028363 0.32408060693215623 0.0065203645845330468 -0.052252844124367627 -0.34556925419585049 -0.95940386921410648 0.021726144243896583 -0.71867011483016974 0.14353061669669984 0.2841646613740833
decision_type=2 2 2 2 2 2 2 2 2 2 2 2 2 2 2 2 2 2 2 2 2 2 2 2 2 2 2 2 2 2
left_child=1 -1 3 6 10 -6 -3 -5 9 -7 13 -9 23 20 -15 -12 21 -16 28 -20 26 -17 27 24 -10 -19 -2 -23 -13 -25
right_child=4 2 -4 7 5 8 -8 11 12 -11 15 18 -14 14 17 16 -18 25 19 -21 -22 22 -24 29 -26 -27 -28 -29 -30 -31
leaf_value=0.013703179206285212 -0.0012275565893981944 0.012091578172431106 0.015604828165932781 0.0047431683859613261 0.006695315923541785 0.0049144221913246886 0.0034403708325698975 0.0017014056770130992 0.00046768166311085226 -0.00015403105437548624 -0.0023429392840569985 -0.0011374804858739179 -0.002498653918079546 -0.00031183296548468727 -0.0029249286353588105 -0.0037835237790237774 -0.0036346597824460612 -0.0023421076610684395 0.0011181349321850577 -0.00065239716809065574 -0.002744164267238581 -0.0022262033456936477 -0.0018227824244810187 -0.00096665814926382159 -0.0012005716677023364 -0.0011091924612892084 -0.0023873441666364672 -0.0034283355856314303 -0.00026175189271926625 -0.0020123752877116204
leaf_count=36 22 21 21 20 20 21 20 30 20 36 52 36 23 21 25 22 104 20 24 21 106 20 23 24 28 29 34 32 43 20
internal_value=0 0.919546 0.641752 0.399597 -0.356291 0.0899847 1.5743 0.1228 -0.0552569 0.342659 -0.524301 0.0155486 -0.252485 -0.434037 -0.334064 -0.615992 -0.654126 -0.411167 -0.0630157 0.0583773 -0.492663 -0.576067 -0.523079 -0.190673 -0.101093 -0.322485 -0.386343 -0.593195 -0.132164 -0.288397
internal_count=974 272 236 215 702 192 41 174 172 57 510 154 115 257 95 253 201 74 124 45 162 97 75 92 48 49 56 52 79 44
shrinkage=0.005


Tree=15
num_leaves=31
num_cat=0
split_feature=77 7 87 16 84 1 27 8 21 109 12 115 19 64 16 16 16 37 134 112 3 23 59 3 1 107 21 36 116 2
split_gain=316.254 218.088 88.063 74.6575 44.9291 38.0091 27.6508 16.5831 15.6325 15.0067 7.04294 6.07609 3.01062 2.52833 1.76619 1.25727 1.23155 1.02046 1.17838 0.959858 0.76665 0.765086 0.599111 0.488904 0.528912 0.466198 0.905278 0.431186 0.411525 0.739741
threshold=0.22896578668996434 -0.069263588307031124 0.17137143836909532 -0.59042666954936729 -0.013194218961969427 -0.70208399093098184 1.6718084218840159 0.16774417900071434 -1.3200433467496075 -0.17480179907405916 -0.35954061938272741 -0.17359817197566055 0.65739808921907872 -0.73577392634039451 -0.064142713759908349 -0.3304321388488089 -0.13542673808177838 -1.822804411727472 -0.7024379246811624 0.58190242459081143 -1.1803622422875351 -0.034127274472807702 -0.42126486111764588 0.41654957488209537 -0.64653088806867498 -0.45320589714141318 -0.99605318109781182 -1.1687739156493031 -0.65041226392229479 0.18110819647957574
decision_type=2 2 2 2 2 2 2 2 2 2 2 2 2 2 2 2 2 2 2 2 2 2 2 2 2 2 2 2 2 2
left_child=4 -2 -3 6 5 -1 -4 -7 9 -5 12 -10 14 16 20 21 -12 -15 22 -13 -6 -9 -19 24 27 26 -21 -20 -18 -30
right_child=1 2 3 8 10 7 -8 15 11 -11 13 19 -14 17 -16 -17 28 18 23 25 -22 -23 -24 -25 -26 -27 -28 -29 29 -31
leaf_value=0.0068128339697917303 0.017647430297386434 0.011695318216314683 0.011870087927461349 0.00056342934634393221 -0.0026059555757621472 0.0033015926162867498 0.0038489227812914624 -0.0013197487013624802 0.0018855397944772167 0.0061743553581816903 -0.0029265986778773366 -0.0015001717520256839 0.00032961755618453027 -0.0021559408865869044 -0.00062815763056278228 -0.00024793952965410429 -0.0025385920470580459 -0.0019913885774819748 -0.0029700930350615336 -0.00086387218010646318 -0.0015476052631025335 -0.0024444089122116568 -0.0030992131737562329 -0.003783753118005352 -0.0027512960451551612 -0.00096948036027175405 0.00036245018724109871 -0.0038102187358197716 -0.0013070832762648078 -0.0022752811054283003
leaf_count=21 28 26 22 26 44 24 21 62 29 22 64 27 20 23 24 22 32 23 24 27 28 20 26 69 36 27 34 42 34 47
internal_value=0 0.877273 0.592744 0.399535 -0.37012 0.115625 1.59055 -0.0889516 0.132796 0.627021 -0.505149 -0.0319461 -0.287032 -0.565391 -0.360564 -0.26186 -0.474482 -0.631609 -0.652562 -0.135099 -0.438875 -0.318811 -0.515843 -0.691739 -0.647761 -0.0844937 -0.0360696 -0.700944 -0.411706 -0.373775
internal_count=974 289 261 235 685 149 43 128 192 48 536 144 116 420 96 104 177 243 220 115 72 82 49 171 102 88 61 66 113 81
shrinkage=0.005


Tree=16
num_leaves=31
num_cat=0
split_feature=77 7 87 16 84 1 27 8 21 109 12 115 19 64 16 16 16 37 134 112 3 23 59 3 1 107 21 36 20 55
split_gain=313.099 215.913 87.1845 73.9128 44.4809 37.63 27.375 16.4176 15.4766 14.857 6.97269 6.01548 2.98059 2.50311 1.74857 1.24473 1.21927 1.01029 1.16662 0.950284 0.759003 0.757455 0.593135 0.484028 0.523636 0.461548 0.896248 0.426885 0.40862 0.933207
threshold=0.22896578668996434 -0.069263588307031124 0.17137143836909532 -0.59042666954936729 -0.013194218961969427 -0.70208399093098184 1.6718084218840159 0.16774417900071434 -1.3200433467496075 -0.17480179907405916 -0.35954061938272741 -0.17359817197566055 0.65739808921907872 -0.73577392634039451 -0.064142713759908349 -0.3304321388488089 -0.13542673808177838 -1.822804411727472 -0.7024379246811624 0.58190242459081143 -1.1803622422875351 -0.034127274472807702 -0.42126486111764588 0.41654957488209537 -0.64653088806867498 -0.45320589714141318 -0.99605318109781182 -1.1687739156493031 0.88442698566147671 0.14339837166313438
decision_type=2 2 2 2 2 2 2 2 2 2 2 2 2 2 2 2 2 2 2 2 2 2 2 2 2 2 2 2 2 2
left_child=4 -2 -3 6 5 -1 -4 -7 9 -5 12 -10 14 16 20 21 -12 -15 22 -13 -6 -9 -19 24 27 26 -21 -20 29 -18
right_child=1 2 3 8 10 7 -8 15 11 -11 13 19 -14 17 -16 -17 28 18 23 25 -22 -23 -24 -25 -26 -27 -28 -29 -30 -31
leaf_value=0.006778769606635684 0.017559193004854024 0.011636842017850051 0.011810737805949018 0.0005606121842104655 -0.0025929257942532953 0.0032850846314492329 0.0038296781728665037 -0.0013131499424156162 0.0018761120946146547 0.0061434835754334925 -0.002911965665407479 -0.0014926708777676578 0.00032796947844326499 -0.0021451611638717031 -0.00062501683831214902 -0.00024669981461060658 -0.0024745189765734334 -0.00198143163776916 -0.0029552425700239836 -0.0008595528012072598 -0.0015398672337843373 -0.0024321868680417537 -0.003083717083701721 -0.0037648343710579737 -0.0027375395740899776 -0.00096463295665604094 0.00036063795408100465 -0.0037911677005745114 -0.0025266017206013202 -0.001391119564599965
leaf_count=21 28 26 22 26 44 24 21 62 29 22 64 27 20 23 24 22 35 23 24 27 28 20 26 69 36 27 34 42 32 46
internal_value=0 0.872887 0.589781 0.397537 -0.368269 0.115047 1.5826 -0.0885069 0.132132 0.623886 -0.502623 -0.0317864 -0.285597 -0.562564 -0.358761 -0.260551 -0.472109 -0.628451 -0.649299 -0.134423 -0.436681 -0.317217 -0.513264 -0.688281 -0.644522 -0.0840712 -0.0358893 -0.697439 -0.409648 -0.371851
internal_count=974 289 261 235 685 149 43 128 192 48 536 144 116 420 96 104 177 243 220 115 72 82 49 171 102 88 61 66 113 81
shrinkage=0.005


Tree=17
num_leaves=31
num_cat=0
split_feature=30 7 83 16 40 27 40 124 8 148 6 39 71 16 52 56 65 39 9 73 41 84 134 139 53 116 142 115 103 7
split_gain=310.067 133.63 139.113 67.9599 51.1319 33.9711 30.21 15.1541 13.0828 13.4837 5.57065 4.07515 1.71553 1.4782 1.94016 1.39004 1.12817 1.10364 0.93092 0.921543 0.822341 0.801648 1.29036 0.705558 0.698613 0.689026 0.488079 0.603544 0.693983 0.472802
threshold=-0.5355108897826969 -0.069263588307031124 -0.17450158280300657 -0.59042666954936729 -0.017086897919685932 -0.50609041101265451 0.1532433658828645 2.3929202429955745 0.17537718982072739 0.10425487855760598 -1.1938075186234645 0.33946031724375997 -0.20183822135089619 -0.012943827760000953 0.4366372636318237 -1.1179036153435675 0.68213097050129312 0.75986827048345751 0.32408060693215623 -0.16861082740028363 0.0065203645845330468 -0.052252844124367627 -0.34556925419585049 -0.95940386921410648 -0.71867011483016974 0.021726144243896583 0.15799904142965956 -0.17117131690638729 -1.1527098199588546 0.044225030691113006
decision_type=2 2 2 2 2 2 2 2 2 2 2 2 2 2 2 2 2 2 2 2 2 2 2 2 2 2 2 2 2 2
left_child=1 -1 3 6 11 -6 -3 10 9 -7 -5 13 21 19 -15 29 -16 18 -17 25 24 22 -10 -18 -20 -2 27 28 -12 -13
right_child=4 2 -4 7 5 8 -8 -9 12 -11 26 15 -14 14 16 17 23 -19 20 -21 -22 -23 -24 -25 -26 -27 -28 -29 -30 -31
leaf_value=0.013505236453687151 -0.0012226202559064735 0.011943196711086092 0.015446425813826777 0.0018208887240411164 0.0066109486632049087 0.0048688090840975449 0.0033567720782011748 0.004477605518080633 0.00047743863053619862 -0.00017258413705146977 -5.0638744593781765e-05 -0.0026982296522586576 -0.0024661431784245551 -0.00030404606745356604 -0.002890324893593788 -0.00374374446882443 -0.0023075135415419937 -0.0035807934757142975 -0.0021891833851113915 -0.0027050371308160841 -0.0017868241270923098 -0.0014269048450726337 -0.0011854098035421754 -0.0010867817263151038 -0.0033804256282746791 -0.0023582347570096744 -0.0011125319303634266 0.00045701489970088009 -0.001019400903217805 -0.0017265546676658451
leaf_count=36 22 21 21 34 20 21 20 22 20 36 38 31 23 21 25 22 20 104 20 106 23 44 28 29 32 34 24 20 36 21
internal_value=0 0.906427 0.632671 0.392723 -0.351208 0.0886491 1.55094 0.11981 -0.0547859 0.336954 0.00753558 -0.516801 -0.248953 -0.42811 -0.329074 -0.606895 -0.405203 -0.644596 -0.567869 -0.486187 -0.514811 -0.187884 -0.0985113 -0.317008 -0.584451 -0.38242 -0.0952257 -0.0627285 -0.104386 -0.461164
internal_count=974 272 236 215 702 192 41 174 172 57 152 510 115 257 95 253 74 201 97 162 75 92 48 49 52 56 118 94 74 52
shrinkage=0.005


Tree=18
num_leaves=31
num_cat=0
split_feature=77 7 87 16 84 1 27 8 21 109 12 115 19 64 16 16 16 137 136 4 112 3 23 122 107 21 21 72 143 34
split_gain=307.259 212.263 85.778 72.5408 43.7005 37.0159 27.0534 16.1085 15.2095 14.6574 6.7864 5.95456 2.8814 2.46317 1.72001 1.23956 1.20005 0.995712 0.982876 1.23022 0.954153 0.741588 0.738745 0.595251 0.456535 0.890676 0.422789 0.466565 0.468429 0.404877
threshold=0.22896578668996434 -0.069263588307031124 0.17137143836909532 -0.59042666954936729 -0.013194218961969427 -0.70208399093098184 1.6718084218840159 0.16774417900071434 -1.3200433467496075 -0.17480179907405916 -0.35954061938272741 -0.17359817197566055 0.65739808921907872 -0.73577392634039451 -0.064142713759908349 -0.3304321388488089 -0.13542673808177838 1.5068203022249522 -0.22613076452163952 -0.76531550971174689 0.58190242459081143 -1.1803622422875351 -0.034127274472807702 0.64255444645853288 -0.45320589714141318 -0.99605318109781182 0.42068543699901056 0.90652218076920332 -0.17733216057082676 -0.80551390153024383
decision_type=2 2 2 2 2 2 2 2 2 2 2 2 2 2 2 2 2 2 2 2 2 2 2 2 2 2 2 2 2 2
left_child=4 -2 -3 6 5 -1 -4 -7 9 -5 12 -10 14 16 21 22 -12 18 19 -15 -13 -6 -9 -20 25 -22 27 28 -21 -18
right_child=1 2 3 8 10 7 -8 15 11 -11 13 20 -14 17 -16 -17 29 -19 23 26 24 -23 -24 -25 -26 -27 -28 -29 -30 -31
leaf_value=0.006723905608412766 0.017406313241725521 0.011537592869538527 0.011711420366879215 0.00054781868982200436 -0.002570287766866386 0.0032541197290023166 0.003777391000517777 -0.0013035142711634118 0.0018641577640965837 0.0060930737334472882 -0.002884022907819599 -0.0014933570941772173 0.00030708388052880768 -0.0016013081092387438 -0.00061988054309040311 -0.0002364583610324189 -0.0024739196103598393 -0.0039198078531207459 -0.002787758732835452 -0.0025490691061866911 -0.00085725258863358596 -0.0015293797607799726 -0.0024086442179977892 -0.0038037007593590285 -0.00096017463995074783 0.00035913899431333821 -0.0024826904725179905 -0.003703592002391815 -0.0034413268975913526 -0.0018266434950801808
leaf_count=21 28 26 22 26 44 24 21 62 29 22 64 27 20 20 24 22 35 33 21 38 27 28 20 46 27 34 36 25 24 78
internal_value=0 0.864707 0.584004 0.393317 -0.364818 0.114239 1.56733 -0.0876468 0.130386 0.617879 -0.497989 -0.0321109 -0.283881 -0.557123 -0.355818 -0.258063 -0.467393 -0.622482 -0.597107 -0.550279 -0.134227 -0.433098 -0.314612 -0.697054 -0.0837723 -0.0358528 -0.58768 -0.625394 -0.578892 -0.405425
internal_count=974 289 261 235 685 149 43 128 192 48 536 144 116 420 96 104 177 243 210 143 115 72 82 67 88 61 123 87 62 113
shrinkage=0.005


Tree=19
num_leaves=31
num_cat=0
split_feature=77 7 61 16 84 1 27 46 8 12 103 51 19 64 16 16 16 37 134 143 124 3 23 59 3 1 36 7 42 2
split_gain=304.194 210.146 84.9589 71.2538 43.2646 36.6467 26.7835 17.3672 15.9478 6.71871 6.48823 11.7562 2.85266 2.4386 1.70286 1.22719 1.18808 0.989323 1.14356 0.836534 1.37195 0.734191 0.731376 0.580032 0.478866 0.515571 0.41797 0.404174 0.513693 0.752665
threshold=0.22896578668996434 -0.069263588307031124 0.7432374973528475 -0.59042666954936729 -0.013194218961969427 -0.70208399093098184 1.6718084218840159 2.1090751448427989 0.16774417900071434 -0.35954061938272741 -1.1527098199588546 0.028508584318135542 0.65739808921907872 -0.73577392634039451 -0.064142713759908349 -0.3304321388488089 -0.13542673808177838 -1.822804411727472 -0.7024379246811624 0.43510475824324912 0.38858130347031616 -1.1803622422875351 -0.034127274472807702 -0.42126486111764588 0.41654957488209537 -0.64653088806867498 -1.1687739156493031 0.18974165898280079 -0.34024096427071254 0.18110819647957574
decision_type=2 2 2 2 2 2 2 2 2 2 2 2 2 2 2 2 2 2 2 2 2 2 2 2 2 2 2 2 2 2
left_child=4 -2 -3 6 5 -1 -4 10 -7 12 11 -5 14 16 21 22 -11 -15 23 20 -12 -6 -10 -19 25 26 -20 28 -18 -30
right_child=1 2 3 7 9 8 -8 -9 15 13 19 -13 -14 17 -16 -17 27 18 24 -21 -22 -23 -24 -25 -26 -27 -28 -29 29 -31
leaf_value=0.0066902861424854819 0.017319281482403831 0.011670180800557137 0.011652863489633257 0.0035879490052860594 -0.0025574363044209105 0.0032378490354555353 0.0037585040288312093 0.004861756540538574 -0.0012969966952298437 -0.0028696027770638466 -0.0013312223162662623 -0.00033108746088109911 0.00030554846301674842 -0.0021101538577805398 -0.00061678113726278149 -0.00023527604887600652 -0.0024238734727814086 -0.0019481914895384208 -0.0029115221271058546 -0.0016292936457003551 0.00010480520190097966 -0.0015217328605441644 -0.0023966009989380838 -0.0030382340573347532 -0.0037146763498152515 -0.0026940303844296271 -0.0037386717824708848 -0.0023845812761121329 -0.00080874784256924285 -0.0020768039897084236
leaf_count=21 28 25 22 31 44 24 21 22 62 64 29 50 20 23 24 22 21 23 24 22 39 28 20 26 69 36 42 45 22 25
internal_value=0 0.860384 0.581084 0.39539 -0.362994 0.113668 1.5595 0.136029 -0.0872086 -0.495499 0.0284322 0.233758 -0.282461 -0.554338 -0.354038 -0.256773 -0.465056 -0.61937 -0.640001 -0.156361 -0.101524 -0.430933 -0.313039 -0.505316 -0.678595 -0.63507 -0.687578 -0.403398 -0.354747 -0.296649
internal_count=974 289 261 236 685 149 43 193 128 536 171 81 116 420 96 104 177 243 220 90 68 72 82 49 171 102 66 113 68 47
shrinkage=0.005


Tree=20
num_leaves=31
num_cat=0
split_feature=30 7 83 16 40 27 40 11 8 148 22 6 71 107 71 56 64 51 16 84 43 71 21 130 81 16 40 1 63 137
split_gain=301.462 129.721 136.601 66.0311 49.6072 33.1523 29.7597 14.8625 12.6526 13.3528 3.9487 3.76341 2.60718 1.75814 1.67156 1.60226 1.15965 1.01193 1.379 0.998851 0.811578 0.809346 0.738458 0.736517 0.678667 0.672819 0.590069 0.487172 0.435942 0.346371
threshold=-0.5355108897826969 -0.069263588307031124 -0.17450158280300657 -0.59042666954936729 -0.017086897919685932 -0.50609041101265451 0.1532433658828645 -1.3103377682358868 0.17537718982072739 0.10425487855760598 0.31614206897980862 -1.1938075186234645 0.26291522515033372 0.67208229504610595 -0.20183822135089619 -1.1179036153435675 -0.54662827342167164 0.034549340958155268 -0.47422929918888984 0.0077285345581794866 0.15963733218369527 -0.44674028104629154 0.12362320932296746 0.58108277623026561 0.39815253750001806 0.2441323459615953 0.14353061669669984 -0.79291721472963872 -0.71108983246703883 0.75985702812227185
decision_type=2 2 2 2 2 2 2 2 2 2 2 2 2 2 2 2 2 2 2 2 2 2 2 2 2 2 2 2 2 2
left_child=1 -1 3 6 10 -6 -3 -5 9 -7 12 -9 13 20 21 27 22 26 -19 24 -2 23 -17 -10 -14 29 -13 -12 -25 -21
right_child=4 2 -4 7 5 8 -8 11 14 -11 15 17 19 -15 -16 16 -18 18 -20 25 -22 -23 -24 28 -26 -27 -28 -29 -30 -31
leaf_value=0.01330968755685414 -0.0025921947881579399 0.011796808750146912 0.015291859861906796 0.0046412281969678585 0.0065276713427156212 0.0048210479780322031 0.0032746092621237038 0.0016487425383335599 -0.0018468776373909072 -0.00019582443663643465 -0.0027155937929637729 -0.0011379849084834051 -0.0029667058294372902 -0.00011923571540550753 -0.0024340924663904489 -0.0022008642843314285 -0.0036613582627427195 0.0010923986730631441 -0.00066205685736522792 -0.0020862618565212847 -0.0011848441183212259 -3.7258647382259367e-05 -0.0032196568400072664 -0.0002390591069124639 -0.0021614260010813413 -0.0014952711067679856 -0.00027032547706174994 -0.0017732174322009086 -0.0012209461715358954 -0.0028576128777455202
leaf_count=36 20 21 21 20 20 21 20 30 26 36 32 36 84 22 23 29 93 24 21 43 21 20 46 20 38 36 43 24 26 22
internal_value=0 0.893759 0.624037 0.386265 -0.3463 0.0869498 1.52793 0.117253 -0.054746 0.330499 -0.509406 0.0119288 -0.431533 -0.251901 -0.245694 -0.608832 -0.657661 -0.064963 0.0547306 -0.482282 -0.374271 -0.185413 -0.565145 -0.234846 -0.543176 -0.408726 -0.133143 -0.462344 -0.158808 -0.469467
internal_count=974 272 236 215 702 192 41 174 172 57 510 154 286 63 115 224 168 124 45 223 41 92 75 72 122 101 79 56 46 65
shrinkage=0.005


Tree=21
num_leaves=31
num_cat=0
split_feature=77 7 87 16 84 1 7 27 21 109 12 115 19 64 16 16 37 134 108 43 112 3 59 3 1 107 21 34 29 36
split_gain=298.514 206.597 83.8956 70.5296 42.5123 36.2192 49.3113 26.4667 14.8759 14.4873 6.54163 5.87169 2.75558 2.40171 1.68432 1.17161 0.973911 1.1273 0.972848 1.45513 0.965652 0.716983 0.57153 0.476027 0.508408 0.452101 0.881292 0.400508 0.951475 0.399259
threshold=0.22896578668996434 -0.069263588307031124 0.17137143836909532 -0.59042666954936729 -0.013194218961969427 -0.41032929486369019 0.30254367835178414 1.6718084218840159 -1.3200433467496075 -0.17480179907405916 -0.35954061938272741 -0.17359817197566055 0.65739808921907872 -0.73577392634039451 -0.064142713759908349 -0.13542673808177838 -1.822804411727472 -0.7024379246811624 -0.18141225688046839 0.4831010497427603 0.58190242459081143 -1.1803622422875351 -0.42126486111764588 0.41654957488209537 -0.62267963119105452 -0.45320589714141318 -0.99605318109781182 -0.80551390153024383 0.42818761011422884 -1.1687739156493031
decision_type=2 2 2 2 2 2 2 2 2 2 2 2 2 2 2 2 2 2 2 2 2 2 2 2 2 2 2 2 2 2
left_child=4 -2 -3 7 5 6 -1 -4 9 -5 12 -10 14 15 21 -12 -15 22 19 -7 -13 -6 -18 24 29 26 -22 -17 -29 -19
right_child=1 2 3 8 10 18 -8 -9 11 -11 13 20 -14 16 -16 27 17 23 -20 -21 25 -23 -24 -25 -26 -27 -28 28 -30 -31
leaf_value=0.007267958977156215 0.017168548301893422 0.011399397394404962 0.011554634142667055 0.0005214876180756479 -0.0025357684550214223 6.5197632648050788e-05 -0.0019846048454443613 0.003707105584797405 0.0018447413771605953 0.0060344647275897756 -0.002842492873314768 -0.0015000111601073986 0.0002847449742257595 -0.0020886876515072324 -0.00060825429468726127 -0.0024401873323534216 -0.0019272615290854289 -0.0028831279879280676 -0.0019764345766872995 -0.0017609086731681602 -0.00085503694877304417 -0.0015122742781282536 -0.0030092853938157743 -0.0036823555546394294 -0.0026562278052525861 -0.00095773868935389653 0.0003549302256707212 -0.0024085116705724174 -0.0012981928551439629 -0.0036881259499594223
leaf_count=36 28 26 22 26 44 20 24 21 29 22 64 27 20 23 24 35 23 24 45 24 27 28 26 69 35 27 34 35 43 43
internal_value=0 0.852313 0.575381 0.386798 -0.359589 0.112911 0.713387 1.54442 0.127538 0.609654 -0.490937 -0.0331668 -0.280725 -0.548995 -0.351074 -0.460391 -0.613534 -0.634003 -0.291904 -0.186172 -0.13457 -0.427549 -0.500279 -0.672322 -0.628926 -0.0838121 -0.0361258 -0.399162 -0.359283 -0.679954
internal_count=974 289 261 235 685 149 60 43 192 48 536 144 116 420 96 177 243 220 89 44 115 72 49 171 102 88 61 113 78 67
shrinkage=0.005


Tree=22
num_leaves=31
num_cat=0
split_feature=30 7 83 16 40 50 59 40 124 107 6 22 71 107 56 64 42 84 43 109 81 16 142 115 103 117 1 137 47 7
split_gain=295.676 127.194 134.682 64.7794 48.6129 32.6767 32.1315 29.3896 14.6546 10.5677 5.35113 3.87538 2.55814 1.74318 1.57584 1.14135 0.985957 0.98557 0.793638 0.73022 0.670662 0.660652 0.509824 0.596085 0.663687 0.506719 0.481933 0.342311 0.304109 0.298545
threshold=-0.5355108897826969 -0.069263588307031124 -0.17450158280300657 -0.59042666954936729 -0.017086897919685932 -0.2630143048545816 0.25998891943136465 0.1532433658828645 2.3929202429955745 -1.5961509698970884 -1.1938075186234645 0.31614206897980862 0.26291522515033372 0.67208229504610595 -1.1179036153435675 -0.54662827342167164 -0.34955165338325317 0.0077285345581794866 0.15963733218369527 -0.4815025442380399 0.39815253750001806 0.2441323459615953 0.15799904142965956 -0.17117131690638729 -1.1527098199588546 0.67155730045830231 -0.79291721472963872 0.75985702812227185 -0.65034766312321068 0.16536726322875292
decision_type=2 2 2 2 2 2 2 2 2 2 2 2 2 2 2 2 2 2 2 2 2 2 2 2 2 2 2 2 2 2
left_child=1 -1 3 7 11 6 -6 -3 10 -7 -5 12 13 18 26 19 -11 20 -2 -16 28 27 23 24 -12 29 -13 -19 -14 -18
right_child=4 2 -4 8 5 9 -8 -9 -10 16 22 14 17 -15 15 -17 25 21 -20 -21 -22 -23 -24 -25 -26 -27 -28 -29 -30 -31
leaf_value=0.013180054240187422 -0.0025687812380492687 0.011694999511043231 0.015176160919613071 0.0017732439655639397 -0.00077551344917579132 0.0022708191633548425 0.007179944717635711 0.0032259674966335296 0.0043916624326266179 -0.0004257320510223508 -5.8101048083412216e-05 -0.0026899310504086317 -0.0027713356795720755 -0.00011130622503432359 -0.0022100447935442771 -0.0036268329628372704 -0.0019653492388315499 -0.0020638139727850295 -0.001177071590597431 -0.0032119351661954584 -0.0021389973673381305 -0.0014790278830979435 -0.0011284856731072069 0.00045388634176924829 -0.0010054817474964592 -0.0022931931746880646 -0.0017526347314318022 -0.0028306304930116643 -0.0034776848331093792 -0.0012502295005618147
leaf_count=36 20 21 21 34 22 23 30 20 22 20 38 32 64 22 31 93 20 43 21 44 38 36 24 20 36 23 24 22 20 54
internal_value=0 0.885141 0.618059 0.381963 -0.342961 0.0859254 0.762835 1.51275 0.115512 -0.165498 0.00510419 -0.504423 -0.427277 -0.249342 -0.602922 -0.651348 -0.287312 -0.477546 -0.371191 -0.559564 -0.538035 -0.404481 -0.0956121 -0.0623988 -0.103798 -0.328996 -0.457647 -0.46467 -0.587903 -0.288701
internal_count=974 272 236 215 702 192 52 41 174 140 152 510 286 63 224 168 117 223 41 75 122 101 118 94 74 97 56 65 84 74
shrinkage=0.005


Tree=23
num_leaves=31
num_cat=0
split_feature=77 7 61 16 84 1 7 27 46 103 51 12 19 64 16 16 108 43 137 136 4 143 124 3 122 21 72 143 34 29
split_gain=292.957 203.117 82.7134 68.6759 41.7614 35.609 48.6436 26.1459 16.8699 6.43276 11.5451 6.37064 2.66433 2.36363 1.67108 1.15473 0.962137 1.43525 0.962032 0.96765 1.19232 0.821327 1.31179 0.705401 0.545059 0.422299 0.455207 0.455147 0.397745 0.938172
threshold=0.22896578668996434 -0.069263588307031124 0.7432374973528475 -0.59042666954936729 -0.013194218961969427 -0.41032929486369019 0.30254367835178414 1.6718084218840159 2.1090751448427989 -1.1527098199588546 0.028508584318135542 -0.35954061938272741 0.65739808921907872 -0.73577392634039451 -0.064142713759908349 -0.13542673808177838 -0.18141225688046839 0.4831010497427603 1.5068203022249522 -0.22613076452163952 -0.76531550971174689 0.43510475824324912 0.38858130347031616 -1.1803622422875351 0.64255444645853288 0.42068543699901056 0.90652218076920332 -0.17733216057082676 -0.80551390153024383 0.42818761011422884
decision_type=2 2 2 2 2 2 2 2 2 2 2 2 2 2 2 2 2 2 2 2 2 2 2 2 2 2 2 2 2 2
left_child=4 -2 -3 7 5 6 -1 -4 9 10 -5 12 14 15 23 -13 17 -7 19 20 -15 22 -11 -6 -21 26 27 -22 -17 -30
right_child=1 2 3 8 11 16 -8 -9 -10 21 -12 13 -14 18 -16 28 -18 -19 -20 24 25 -23 -24 -25 -26 -27 -28 -29 29 -31
leaf_value=0.0072132732812315225 0.017019510159734637 0.011496929302811622 0.011456143148243428 0.0035488756429103599 -0.0025163508689200337 6.842781417071819e-05 -0.0019764327257871628 0.0036563087006409962 0.0047808244983686809 -0.0013243689078933976 -0.0003348226438392885 -0.0028156532265711577 0.00026536585018038751 -0.001549374621361494 -0.0005980876390822232 -0.00241793358911361 -0.0019606060804799202 -0.001745163315887718 -0.0038322657978895943 -0.0027423223906329701 -0.002484051875377956 -0.0016304596163205466 7.9818338451262283e-05 -0.0015011570609307714 -0.0037144888386778209 -0.0024102675947748745 -0.0036237338542938233 -0.0033635691735738266 -0.0023841891820941654 -0.0012816594443608856
leaf_count=36 28 25 22 31 44 20 24 21 22 29 50 64 20 20 24 35 45 24 33 21 38 22 39 28 46 36 25 24 35 43
internal_value=0 0.844343 0.569754 0.38653 -0.356226 0.112082 0.707478 1.52938 0.131905 0.0258598 0.230306 -0.486409 -0.278963 -0.543704 -0.348137 -0.455805 -0.289309 -0.184161 -0.607729 -0.582786 -0.536322 -0.158142 -0.103805 -0.424311 -0.681956 -0.573142 -0.610834 -0.564902 -0.395019 -0.355277
internal_count=974 289 261 236 685 149 60 43 193 171 81 536 116 420 96 177 89 44 243 210 143 90 68 72 67 123 87 62 113 78
shrinkage=0.005


Tree=24
num_leaves=31
num_cat=0
split_feature=30 7 83 16 40 50 59 40 11 107 22 6 71 107 56 64 51 16 42 84 43 21 81 16 40 89 1 7 23 137
split_gain=290.173 124.666 132.797 63.5167 47.5753 32.1715 31.6899 29.024 14.4685 10.3757 3.80273 3.63712 2.5112 1.72757 1.55129 1.12095 0.997352 1.35863 0.973381 0.9731 0.776275 0.723336 0.663467 0.648499 0.577009 0.498353 0.476958 0.344945 0.655227 0.338016
threshold=-0.5355108897826969 -0.069263588307031124 -0.17450158280300657 -0.59042666954936729 -0.017086897919685932 -0.2630143048545816 0.25998891943136465 0.1532433658828645 -1.3103377682358868 -1.5961509698970884 0.31614206897980862 -1.1938075186234645 0.26291522515033372 0.67208229504610595 -1.1179036153435675 -0.54662827342167164 0.034549340958155268 -0.47422929918888984 -0.34955165338325317 0.0077285345581794866 0.15963733218369527 0.12362320932296746 0.39815253750001806 0.2441323459615953 0.14353061669669984 0.17122405381302383 -0.79291721472963872 0.17256451581297258 -0.19395601305031604 0.75985702812227185
decision_type=2 2 2 2 2 2 2 2 2 2 2 2 2 2 2 2 2 2 2 2 2 2 2 2 2 2 2 2 2 2
left_child=1 -1 3 7 10 6 -6 -3 -5 -7 12 -10 13 20 26 21 24 -18 -11 22 -2 -16 -14 29 -13 -20 -12 -27 -29 -21
right_child=4 2 -4 8 5 9 -8 -9 11 18 14 16 19 -15 15 -17 17 -19 25 23 -22 -23 -24 -25 -26 27 -28 28 -30 -31
leaf_value=0.013051252600529955 -0.0025453462190926073 0.011594100257470494 0.015063265679720123 0.0045717145302332941 -0.00077711064368486411 0.0022453312693244739 0.0071234962965051329 0.0031779063334688544 0.0016134752764677008 -0.00042386513017117977 -0.0026642021257430315 -0.0011321366105564972 -0.0029128759480746731 -0.00010354047641158104 -0.0021522844277707667 -0.003592286337447423 0.0010801340754066284 -0.0006613173140656381 -0.0023170981032862551 -0.0020416075692966927 -0.0011689450476495993 -0.0031605914385221217 -0.0021166648715734483 -0.0014629899834593138 -0.0002741324694199098 -0.0020105802360922097 -0.0017317565522777538 -0.00051999554445501415 -0.0016487346201514205 -0.0028035980463027954
leaf_count=36 20 21 21 20 22 23 30 20 30 20 32 36 84 22 29 93 24 21 21 43 21 46 38 36 43 20 24 20 36 22
internal_value=0 0.876866 0.612451 0.378013 -0.339754 0.0845299 0.756186 1.49773 0.114172 -0.164942 -0.499485 0.0102535 -0.423065 -0.24677 -0.597056 -0.645102 -0.0653372 0.0534914 -0.285645 -0.472871 -0.368072 -0.554143 -0.532975 -0.400269 -0.133024 -0.327062 -0.452917 -0.289384 -0.249123 -0.459902
internal_count=974 272 236 215 702 192 52 41 174 140 510 154 286 63 224 168 124 45 117 223 41 75 122 101 79 97 56 76 56 65
shrinkage=0.005


Tree=25
num_leaves=31
num_cat=0
split_feature=77 7 87 16 84 1 27 8 21 109 12 115 19 64 16 16 16 112 37 134 75 3 10 59 3 1 107 21 7 42
split_gain=287.503 199.699 81.573 67.9512 41.0316 35.0163 25.8291 15.334 14.4192 14.2855 6.20148 5.78399 2.57575 2.32787 1.65891 1.18578 1.13873 0.985097 0.947944 1.09799 0.718413 0.69326 0.595358 0.558197 0.471657 0.499918 0.448012 0.873852 0.395505 0.503603
threshold=0.22896578668996434 -0.069263588307031124 0.17137143836909532 -0.59042666954936729 -0.013194218961969427 -0.70208399093098184 1.6718084218840159 0.16774417900071434 -1.3200433467496075 -0.17480179907405916 -0.35954061938272741 -0.17359817197566055 0.65739808921907872 -0.73577392634039451 -0.064142713759908349 -0.3304321388488089 -0.13542673808177838 0.58190242459081143 -1.822804411727472 -0.7024379246811624 -0.15759146768366009 -1.1803622422875351 -0.59891627966714156 -0.42126486111764588 0.41654957488209537 -0.62267963119105452 -0.45320589714141318 -0.99605318109781182 0.18974165898280079 -0.34024096427071254
decision_type=2 2 2 2 2 2 2 2 2 2 2 2 2 2 2 2 2 2 2 2 2 2 2 2 2 2 2 2 2 2
left_child=4 -2 -3 6 5 -1 -4 -7 9 -5 12 -10 14 16 21 20 -12 -13 -15 23 -9 -6 -22 -20 25 -21 27 -19 29 -18
right_child=1 2 3 8 10 7 -8 15 11 -11 13 17 -14 18 -16 -17 28 26 19 24 22 -23 -24 -25 -26 -27 -28 -29 -30 -31
leaf_value=0.006540732174402192 0.016871901065543562 0.011224583189647933 0.011358530660244552 0.00048290343185027057 -0.0024972451304678214 0.0031772250115560991 0.0036061068730694908 -0.0021493126749992371 0.0018231426169774657 0.0059573498359796672 -0.0027890610939357431 -0.0015110246857835186 0.0002460403796285391 -0.002044171948471795 -0.00058795296043778463 -0.0002258720388635993 -0.0023574348432677133 -0.00085344860882118902 -0.0018837195505266606 -0.0033370919075947419 -0.00066287225793564203 -0.0014908255467058294 -0.0017336738184094431 -0.0029530479300480623 -0.0036193447160548058 -0.0025997856903289046 -0.00095548104790160087 0.00035139988989719902 -0.0023179729539487097 -0.0014260911612593115
leaf_count=21 28 26 22 26 44 24 21 30 29 22 64 27 20 23 24 22 21 27 23 67 27 28 25 26 69 35 27 34 45 47
internal_value=0 0.836447 0.564178 0.378224 -0.352895 0.111303 1.51449 -0.085054 0.123747 0.598405 -0.481935 -0.0344723 -0.277262 -0.538464 -0.345277 -0.251323 -0.451233 -0.135115 -0.602003 -0.622197 -0.306631 -0.421172 -0.235536 -0.490224 -0.660015 -0.616819 -0.0838489 -0.0363787 -0.390869 -0.342742
internal_count=974 289 261 235 685 149 43 128 192 48 536 144 116 420 96 104 177 115 243 220 82 72 52 49 171 102 88 61 113 68
shrinkage=0.005


Tree=26
num_leaves=31
num_cat=0
split_feature=77 7 61 16 84 1 7 27 46 103 51 12 19 64 16 16 108 43 137 136 4 143 124 3 122 21 72 143 34 29
split_gain=284.635 197.707 80.9982 66.7692 40.6223 34.8041 47.804 25.5714 16.5022 6.36737 11.378 6.13962 2.55006 2.30465 1.64236 1.12737 0.95072 1.41385 0.942198 0.956078 1.16688 0.813738 1.26689 0.686345 0.518426 0.419887 0.446245 0.447217 0.394304 0.922791
threshold=0.22896578668996434 -0.069263588307031124 0.7432374973528475 -0.59042666954936729 -0.013194218961969427 -0.41032929486369019 0.30254367835178414 1.6718084218840159 2.1090751448427989 -1.1527098199588546 0.028508584318135542 -0.35954061938272741 0.65739808921907872 -0.73577392634039451 -0.064142713759908349 -0.13542673808177838 -0.18141225688046839 0.4831010497427603 1.5068203022249522 -0.22613076452163952 -0.76531550971174689 0.43510475824324912 0.38858130347031616 -1.1803622422875351 0.64255444645853288 0.42068543699901056 0.90652218076920332 -0.17733216057082676 -0.80551390153024383 0.42818761011422884
decision_type=2 2 2 2 2 2 2 2 2 2 2 2 2 2 2 2 2 2 2 2 2 2 2 2 2 2 2 2 2 2
left_child=4 -2 -3 7 5 6 -1 -4 9 10 -5 12 14 15 23 -13 17 -7 19 20 -15 22 -11 -6 -21 26 27 -22 -17 -30
right_child=1 2 3 8 11 16 -8 -9 -10 21 -12 13 -14 18 -16 28 -18 -19 -20 24 25 -23 -24 -25 -26 -27 -28 -29 29 -31
leaf_value=0.0071408999297353963 0.016787540870635505 0.011364808198809624 0.011301738111386923 0.0035174266992497351 -0.0024847589355935767 7.4031908530741941e-05 -0.0019691540750985345 0.0035880763899712336 0.0047210194535331207 -0.001315864120080168 -0.00033806460498599338 -0.0027751157828606664 0.00024481017701327804 -0.001520527670159936 -0.00058501319959759714 -0.0023854948947472231 -0.0019414106694360576 -0.0017259853729046882 -0.0037803626782966383 -0.0027134724103269124 -0.0024457950007758644 -0.0016307111520489509 6.4082606337391416e-05 -0.001483371406959902 -0.0036615902315015381 -0.0023686011510694193 -0.0035745909690856935 -0.0033176169187451405 -0.0023495284957545147 -0.0012560738523512385
leaf_count=36 28 25 22 31 44 20 24 21 22 29 50 64 20 20 24 35 45 24 33 21 38 22 39 28 46 36 25 24 35 43
internal_value=0 0.832264 0.561357 0.380043 -0.351131 0.110747 0.699376 1.50692 0.128977 0.0240942 0.227499 -0.479525 -0.275876 -0.535772 -0.34355 -0.448977 -0.286082 -0.181559 -0.598993 -0.574309 -0.528123 -0.15897 -0.104885 -0.419066 -0.672884 -0.564549 -0.602133 -0.556655 -0.388915 -0.349345
internal_count=974 289 261 236 685 149 60 43 193 171 81 536 116 420 96 177 89 44 243 210 143 90 68 72 67 123 87 62 113 78
shrinkage=0.005


Tree=27
num_leaves=31
num_cat=0
split_feature=30 7 83 16 40 50 59 40 11 107 22 6 71 107 56 64 51 16 84 42 51 109 81 16 40 89 1 7 23 137
split_gain=282.122 121.011 130.401 61.7136 46.1185 31.5864 31.1133 28.5919 14.1664 10.1122 3.69423 3.55647 2.43918 1.71307 1.52056 1.0952 0.982502 1.34294 0.959706 0.958824 0.762214 0.719517 0.651278 0.630808 0.564547 0.504844 0.471582 0.359581 0.632834 0.333601
threshold=-0.5355108897826969 -0.069263588307031124 -0.17450158280300657 -0.59042666954936729 -0.017086897919685932 -0.2630143048545816 0.25998891943136465 0.1532433658828645 -1.3103377682358868 -1.5961509698970884 0.31614206897980862 -1.1938075186234645 0.26291522515033372 0.67208229504610595 -1.1179036153435675 -0.54662827342167164 0.034549340958155268 -0.47422929918888984 0.0077285345581794866 -0.34955165338325317 -0.073461614424569069 -0.4815025442380399 0.39815253750001806 0.2441323459615953 0.14353061669669984 0.17122405381302383 -0.79291721472963872 0.17256451581297258 -0.19395601305031604 0.75985702812227185
decision_type=2 2 2 2 2 2 2 2 2 2 2 2 2 2 2 2 2 2 2 2 2 2 2 2 2 2 2 2 2 2
left_child=1 -1 3 7 10 6 -6 -3 -5 -7 12 -10 13 20 26 21 24 -18 22 -11 -2 -16 -14 29 -13 -21 -12 -27 -29 -20
right_child=4 2 -4 8 5 9 -8 -9 11 19 14 16 18 -15 15 -17 17 -19 23 25 -22 -23 -24 -25 -26 27 -28 28 -30 -31
leaf_value=0.012862002725402515 -0.0011214062273502349 0.011452287481654258 0.014912767368147062 0.0045174838348757476 -0.00077512849291617222 0.0022084897598656623 0.0070532626025378714 0.0030989801555406306 0.0015892746850925807 -0.00042129971086978912 -0.0026260531856678428 -0.0011271057733231121 -0.0028743511112406849 -9.0462358837777921e-05 -0.0021470580995082856 -0.0035425923612489498 0.0010684206723332562 -0.00066294997620085878 -0.0020075482710502869 -0.0023098654277800097 -0.0024852845600495735 -0.0031415792204312642 -0.0020854877141353334 -0.0014387301086551613 -0.00027841744792842589 -0.002009533287025988 -0.0016988772421609611 -0.00051539445118396548 -0.0016246785401987532 -0.0027645468885417689
leaf_count=36 20 21 21 20 22 23 30 20 30 20 32 36 84 22 31 93 24 21 43 21 21 44 38 36 43 20 24 20 36 22
internal_value=0 0.864616 0.604107 0.371793 -0.335008 0.0827293 0.74825 1.4755 0.111724 -0.164464 -0.492274 0.00889692 -0.416953 -0.243204 -0.588443 -0.636011 -0.065851 0.0520895 -0.466038 -0.283624 -0.363996 -0.546102 -0.525728 -0.393938 -0.133032 -0.32473 -0.445738 -0.286808 -0.245701 -0.452753
internal_count=974 272 236 215 702 192 52 41 174 140 510 154 286 63 224 168 124 45 223 117 41 75 122 101 79 97 56 76 56 65
shrinkage=0.005


Tree=28
num_leaves=31
num_cat=0
split_feature=77 7 87 16 84 1 7 27 21 109 12 115 19 64 16 16 112 108 43 37 134 3 59 105 137 71 107 21 34 29
split_gain=279.336 194.382 79.7934 66.0549 39.9202 34.2148 47.15 25.2612 14.0918 14.1272 5.97467 5.70091 2.4655 2.26836 1.631 1.1113 0.99317 0.9405 1.39471 0.92798 1.07484 0.674106 0.547893 0.466643 0.825272 0.557186 0.443934 0.863934 0.391531 0.910278
threshold=0.22896578668996434 -0.069263588307031124 0.17137143836909532 -0.59042666954936729 -0.013194218961969427 -0.41032929486369019 0.30254367835178414 1.6718084218840159 -1.3200433467496075 -0.17480179907405916 -0.35954061938272741 -0.17359817197566055 0.65739808921907872 -0.73577392634039451 -0.064142713759908349 -0.13542673808177838 0.58190242459081143 -0.18141225688046839 0.4831010497427603 -1.822804411727472 -0.7024379246811624 -1.1803622422875351 -0.42126486111764588 -0.28202294543235135 0.85380584221806899 0.75494631378982258 -0.45320589714141318 -0.99605318109781182 -0.80551390153024383 0.42818761011422884
decision_type=2 2 2 2 2 2 2 2 2 2 2 2 2 2 2 2 2 2 2 2 2 2 2 2 2 2 2 2 2 2
left_child=4 -2 -3 7 5 6 -1 -4 9 -5 12 -10 14 15 21 -12 -13 18 -7 -15 22 -6 -21 24 25 -22 27 -18 -17 -30
right_child=1 2 3 8 10 17 -8 -9 11 -11 13 16 -14 19 -16 28 26 -19 -20 20 23 -23 -24 -25 -26 -27 -28 -29 29 -31
leaf_value=0.0070872329258256485 0.016642001926499818 0.011090829148888589 0.011205458905632524 0.00045624377449992329 -0.0024660853440449998 7.7794830314815039e-05 -0.0019602870071927705 0.0035387300362899189 0.0018042831483361279 0.0059002704368057582 -0.0027489570993930101 -0.0015152882070591054 0.00022587508149445057 -0.002011053047102431 -0.00057506010867655274 -0.0023637257229004588 -0.00085050866007804868 -0.0019254116128302281 -0.0017100026095188999 -0.0018515599421832874 -0.0030125433489166459 -0.0014736667847526925 -0.0029109728823487574 -0.0035599340777844189 -0.0034828313618898393 -0.0019277321526315063 -0.00095283357771458455 0.00034748334338259801 -0.0023259080414261136 -0.0012398923257755678
leaf_count=36 28 26 22 26 44 20 24 21 29 22 64 27 20 23 24 35 27 45 24 23 29 28 26 72 50 20 27 34 35 43
internal_value=0 0.824481 0.555861 0.371947 -0.347847 0.110021 0.693645 1.49225 0.121046 0.590285 -0.475127 -0.0353672 -0.274232 -0.530613 -0.340775 -0.444504 -0.135285 -0.283433 -0.179473 -0.593334 -0.613315 -0.416029 -0.482739 -0.650731 -0.606182 -0.513953 -0.0838087 -0.0365551 -0.384872 -0.345441
internal_count=974 289 261 235 685 149 60 43 192 48 536 144 116 420 96 177 115 89 44 243 220 72 49 171 99 49 88 61 113 78
shrinkage=0.005


Tree=29
num_leaves=31
num_cat=0
split_feature=30 7 83 16 40 50 59 40 124 107 6 22 71 107 56 64 84 42 51 109 81 16 142 115 103 89 1 7 23 137
split_gain=276.707 118.649 128.57 60.5439 45.1933 31.0626 30.6856 28.2364 14.0114 9.94422 5.04214 3.62735 2.3939 1.69787 1.49508 1.07611 0.947024 0.942639 0.751911 0.711833 0.643468 0.619322 0.527318 0.58798 0.617891 0.503771 0.465902 0.361777 0.621101 0.329305
threshold=-0.5355108897826969 -0.069263588307031124 -0.17450158280300657 -0.59042666954936729 -0.017086897919685932 -0.2630143048545816 0.25998891943136465 0.1532433658828645 2.3929202429955745 -1.5961509698970884 -1.1938075186234645 0.31614206897980862 0.26291522515033372 0.67208229504610595 -1.1179036153435675 -0.54662827342167164 0.0077285345581794866 -0.34955165338325317 -0.073461614424569069 -0.4815025442380399 0.39815253750001806 0.2441323459615953 0.15799904142965956 -0.17117131690638729 -1.1527098199588546 0.17122405381302383 -0.79291721472963872 0.17256451581297258 -0.19395601305031604 0.75985702812227185
decision_type=2 2 2 2 2 2 2 2 2 2 2 2 2 2 2 2 2 2 2 2 2 2 2 2 2 2 2 2 2 2
left_child=1 -1 3 7 11 6 -6 -3 10 -7 -5 12 13 18 26 19 20 -11 -2 -16 -14 29 23 24 -12 -19 -13 -27 -29 -18
right_child=4 2 -4 8 5 9 -8 -9 -10 17 22 14 16 -15 15 -17 21 25 -20 -21 -22 -23 -24 -25 -26 27 -28 28 -30 -31
leaf_value=0.012736580617706749 -0.0011109039466828108 0.011353602338404883 0.014800069937038989 0.0017069952136508242 -0.00077659440650181336 0.0021885939533619779 0.0069978141505271201 0.0030523748840205374 0.0042797317765706049 -0.00041938895825296643 -7.0332956372447751e-05 -0.0026012035668827593 -0.0028479508618779836 -8.2915154370394615e-05 -0.0021236660968392126 -0.0035089656446249257 -0.001985959624655025 -0.0022970341101643584 -0.0024655333622580484 -0.0031128626082896848 -0.0020638316310942172 -0.0014230317441332671 -0.0011398342236255605 0.00045120319724082947 -0.00098444329548834104 -0.0019993876726366582 -0.0016796286699051657 -0.00050950971814745579 -0.0016084621435341737 -0.0027380679321305995
leaf_count=36 20 21 21 34 22 23 30 20 22 20 38 32 84 22 31 93 43 21 21 44 38 36 24 20 36 20 24 20 36 22
internal_value=0 0.856279 0.598324 0.367647 -0.331777 0.0817489 0.741728 1.46084 0.110054 -0.163386 0.00209641 -0.487458 -0.412822 -0.240693 -0.582753 -0.629921 -0.46145 -0.281552 -0.360948 -0.540799 -0.520743 -0.389828 -0.0956688 -0.0618905 -0.103007 -0.32231 -0.441249 -0.284428 -0.243196 -0.448104
internal_count=974 272 236 215 702 192 52 41 174 140 152 510 286 63 224 168 223 117 41 75 122 101 118 94 74 97 56 76 56 65
shrinkage=0.005


Tree=30
num_leaves=31
num_cat=0
split_feature=77 7 61 16 84 1 27 46 8 103 51 12 19 64 16 16 16 137 136 4 115 75 3 10 3 142 95 21 72 143
split_gain=274.137 191.115 78.8745 64.3442 39.2305 33.6996 24.9547 16.0287 14.8784 6.30931 11.1725 5.81379 2.38345 2.23263 1.61968 1.14464 1.09545 0.91421 0.943537 1.14147 0.816961 0.714839 0.662098 0.570127 0.503982 0.817183 0.479784 0.416929 0.438252 0.436517
threshold=0.22896578668996434 -0.069263588307031124 0.7432374973528475 -0.59042666954936729 -0.013194218961969427 -0.70208399093098184 1.6718084218840159 2.1090751448427989 0.16774417900071434 -1.1527098199588546 0.028508584318135542 -0.35954061938272741 0.65739808921907872 -0.73577392634039451 -0.064142713759908349 -0.3304321388488089 -0.13542673808177838 1.5068203022249522 -0.22613076452163952 -0.76531550971174689 -0.17309097843854446 -0.15759146768366009 -1.1803622422875351 -0.59891627966714156 0.77250142231838204 0.15799904142965956 -0.096342454754852688 0.42068543699901056 0.90652218076920332 -0.17733216057082676
decision_type=2 2 2 2 2 2 2 2 2 2 2 2 2 2 2 2 2 2 2 2 2 2 2 2 2 2 2 2 2 2
left_child=4 -2 -3 6 5 -1 -4 9 -7 10 -5 12 14 16 22 21 -13 18 19 -15 -11 -10 -6 -23 -22 -26 -20 28 29 -21
right_child=1 2 3 7 11 8 -8 -9 15 20 -12 13 -14 17 -16 -17 -18 -19 26 27 24 23 -24 -25 25 -27 -28 -29 -30 -31
leaf_value=0.0064171333841624711 0.016497794510962973 0.011197178390622141 0.011110035992566158 0.003479041366747791 -0.0024475725362373686 0.0031319329747930172 0.0034899624774143811 0.0046423943648749794 -0.0021218666906158128 8.8405839167535297e-05 -0.00034146718692209112 -0.0027230488089844585 0.00020724556967616084 -0.00147983805462718 -0.00056523243741442763 -0.00022283826319670135 -0.0019043503377784408 -0.003712290737665061 -0.003791041410174863 -0.0023962930393846412 -0.0015770499840644854 -0.00064887349899099371 -0.0014640322252775409 -0.0016967390209436418 -1.3603537033001583e-05 -0.0014084773969703487 -0.0029370779877430516 -0.0023152568659538198 -0.0035139084696769714 -0.0032576218670389307
leaf_count=21 28 25 22 31 44 24 21 22 30 20 50 64 20 20 24 22 113 33 29 38 28 27 28 25 21 21 38 36 25 24
internal_value=0 0.816771 0.550418 0.371497 -0.344594 0.109302 1.47772 0.125033 -0.0833283 0.0216654 0.224141 -0.47077 -0.272598 -0.525503 -0.338024 -0.247109 -0.440075 -0.587729 -0.563414 -0.517533 -0.160562 -0.301449 -0.413017 -0.230531 -0.211489 -0.142208 -0.661341 -0.553559 -0.591011 -0.545942
internal_count=974 289 261 236 685 149 43 193 128 171 81 536 116 420 96 104 177 243 210 143 90 82 72 52 70 42 67 123 87 62
shrinkage=0.005


Tree=31
num_leaves=31
num_cat=0
split_feature=30 7 83 16 40 50 59 40 11 107 22 6 71 107 56 64 51 16 84 42 51 35 81 16 89 89 1 89 7 23
split_gain=271.563 116.296 126.789 59.3657 44.2609 30.7017 30.2427 27.8854 13.7915 9.75717 3.55942 3.43948 2.34701 1.67944 1.47357 1.05779 0.969123 1.32518 0.936748 0.935097 0.748159 0.704257 0.633733 0.609096 0.553352 0.505969 0.461343 0.423851 0.370161 0.604673
threshold=-0.5355108897826969 -0.069263588307031124 -0.17450158280300657 -0.59042666954936729 -0.017086897919685932 -0.2630143048545816 0.25998891943136465 0.1532433658828645 -1.3103377682358868 -1.5961509698970884 0.31614206897980862 -1.1938075186234645 0.26291522515033372 0.67208229504610595 -1.1179036153435675 -0.54662827342167164 0.034549340958155268 -0.47422929918888984 0.0077285345581794866 -0.34955165338325317 -0.073461614424569069 -0.50042479955214414 0.39815253750001806 0.2441323459615953 0.17145115254589868 0.17122405381302383 -0.79291721472963872 0.17217725959401461 0.17256451581297258 -0.19395601305031604
decision_type=2 2 2 2 2 2 2 2 2 2 2 2 2 2 2 2 2 2 2 2 2 2 2 2 2 2 2 2 2 2
left_child=1 -1 3 7 10 6 -6 -3 -5 -7 12 -10 13 20 26 21 24 -18 22 -11 -2 -16 -14 -20 -13 -21 -12 -26 -27 -30
right_child=4 2 -4 8 5 9 -8 -9 11 19 14 16 18 -15 15 -17 17 -19 23 25 -22 -23 -24 -25 27 28 -28 -29 29 -31
leaf_value=0.012612318683467391 -0.0010977819729596377 0.011255798538525898 0.014690866092486042 0.0044498869800008835 -0.00076927808367393234 0.0021613843965789547 0.006948813299338023 0.0030063281259499492 0.0015556373683114847 -0.00041657668119296428 -0.0025763281108811499 -0.0011718297113839072 -0.0028220377877975506 -7.742868567054922e-05 -0.002980200918132646 -0.0034761452354410646 0.0010572121585103863 -0.00066267149478551896 -0.0022176062317135242 -0.0022909369160022054 -0.0024490270745896161 -0.0019011057410500058 -0.0020438727971754576 -0.001406895714139359 0.00018676148219542069 -0.0019980339463800192 -0.0016592734718384843 -0.00076481620650738474 -0.00050853648246265942 -0.0015928578410401113
leaf_count=36 20 21 21 20 22 23 30 20 30 20 32 32 84 22 54 93 24 21 65 21 21 21 38 36 22 20 24 25 20 36
internal_value=0 0.848282 0.592898 0.363825 -0.328679 0.080559 0.736693 1.44633 0.108751 -0.163148 -0.482745 0.00729339 -0.408811 -0.238377 -0.577143 -0.623971 -0.0662149 0.05092 -0.456961 -0.280197 -0.357977 -0.535611 -0.515932 -0.385728 -0.132937 -0.320792 -0.436661 -0.0638794 -0.282827 -0.24112
internal_count=974 272 236 215 702 192 52 41 174 140 510 154 286 63 224 168 124 45 223 117 41 75 122 101 79 97 56 47 76 56
shrinkage=0.005


Tree=32
num_leaves=31
num_cat=0
split_feature=77 7 61 16 84 1 7 27 46 103 51 12 19 64 16 16 108 43 37 134 115 3 59 131 103 3 1 34 29 36
split_gain=269.032 187.905 77.6508 63.1418 38.5528 33.2107 46.1576 24.6518 15.7777 6.24436 11.0355 5.65773 2.30414 2.19988 1.60855 1.08052 0.928869 1.36945 0.903507 1.0494 0.816919 0.650244 0.535911 0.499141 0.568483 0.463071 0.489213 0.390549 0.893108 0.378192
threshold=0.22896578668996434 -0.069263588307031124 0.7432374973528475 -0.59042666954936729 -0.013194218961969427 -0.41032929486369019 0.30254367835178414 1.6718084218840159 2.1090751448427989 -1.1527098199588546 0.028508584318135542 -0.35954061938272741 0.65739808921907872 -0.73577392634039451 -0.064142713759908349 -0.13542673808177838 -0.18141225688046839 0.4831010497427603 -1.822804411727472 -0.7024379246811624 -0.17309097843854446 -1.1803622422875351 -0.42126486111764588 -0.80031235076925611 -0.97539338240527196 0.41654957488209537 -0.62267963119105452 -0.80551390153024383 0.42818761011422884 -1.1687739156493031
decision_type=2 2 2 2 2 2 2 2 2 2 2 2 2 2 2 2 2 2 2 2 2 2 2 2 2 2 2 2 2 2
left_child=4 -2 -3 7 5 6 -1 -4 9 10 -5 12 14 15 21 -13 17 -7 -15 22 -11 -6 -20 24 -22 26 29 -17 -29 -21
right_child=1 2 3 8 11 16 -8 -9 -10 20 -12 13 -14 18 -16 27 -18 -19 19 25 23 -23 -24 -25 -26 -27 -28 28 -30 -31
leaf_value=0.0069986409445603696 0.01635490542477263 0.011104445376992225 0.011015465083870699 0.0034549426541273156 -0.0024291553497939526 8.7607490364462147e-05 -0.0019531577685847879 0.0034417679196312311 0.0046023825939152056 8.8714709505438808e-05 -0.00034206952340900897 -0.0026973323232959956 0.00018910001032054424 -0.0019681350797738717 -0.00055541529785841704 -0.0023230488611651317 -0.0019003495596763159 -0.0016839229435815165 -0.0018085863052502923 -0.0027279445137052489 -0.001367720170351474 -0.0014544597449379841 -0.0028563512861728667 -0.001724685002118349 -0.00029800573208679755 -0.0035108519561480784 -0.0025014006288755419 -0.0022803562964711873 -0.0012046321174996189 -0.0035114167907903358
leaf_count=36 28 25 22 31 44 20 24 21 22 20 50 64 20 23 24 35 45 24 23 24 23 28 26 20 27 69 35 35 43 43
internal_value=0 0.809131 0.545025 0.367497 -0.341371 0.108587 0.683584 1.46334 0.123346 0.0207914 0.222222 -0.466452 -0.270958 -0.520446 -0.335287 -0.435647 -0.279051 -0.175736 -0.582213 -0.601929 -0.160496 -0.410021 -0.472909 -0.211421 -0.158015 -0.6389 -0.596099 -0.376847 -0.337466 -0.646154
internal_count=974 289 261 236 685 149 60 43 193 171 81 536 116 420 96 177 89 44 243 220 90 72 49 70 50 171 102 113 78 67
shrinkage=0.005


Tree=33
num_leaves=31
num_cat=0
split_feature=30 7 83 16 40 50 59 40 124 107 6 22 71 107 56 64 84 42 51 109 81 16 142 115 103 89 1 7 23 137
split_gain=266.517 113.988 125.043 58.2111 43.3154 30.2263 29.8266 27.5388 13.6115 9.58005 4.86662 3.49331 2.3029 1.6651 1.4492 1.04099 0.924314 0.923314 0.737365 0.701076 0.626315 0.597996 0.513587 0.582957 0.590017 0.505466 0.456377 0.372683 0.586977 0.324643
threshold=-0.5355108897826969 -0.069263588307031124 -0.17450158280300657 -0.59042666954936729 -0.017086897919685932 -0.2630143048545816 0.25998891943136465 0.1532433658828645 2.3929202429955745 -1.5961509698970884 -1.1938075186234645 0.31614206897980862 0.26291522515033372 0.67208229504610595 -1.1179036153435675 -0.54662827342167164 0.0077285345581794866 -0.34955165338325317 -0.073461614424569069 -0.4815025442380399 0.39815253750001806 0.2441323459615953 0.15799904142965956 -0.17117131690638729 -1.1527098199588546 0.17122405381302383 -0.79291721472963872 0.17256451581297258 -0.19395601305031604 0.75985702812227185
decision_type=2 2 2 2 2 2 2 2 2 2 2 2 2 2 2 2 2 2 2 2 2 2 2 2 2 2 2 2 2 2
left_child=1 -1 3 7 11 6 -6 -3 10 -7 -5 12 13 18 26 19 20 -11 -2 -16 -14 29 23 24 -12 -19 -13 -27 -29 -18
right_child=4 2 -4 8 5 9 -8 -9 -10 17 22 14 16 -15 15 -17 21 25 -20 -21 -22 -23 -24 -25 -26 27 -28 28 -30 -31
leaf_value=0.012489231990443335 -0.001088116753846407 0.011158868258907682 0.014582990780472756 0.001671963029075414 -0.0007706710899418051 0.0021370773061947981 0.0068941469316681223 0.0029608337209697314 0.0042131238456138151 -0.00041462303372099998 -7.8470328735420476e-05 -0.0025520216184668244 -0.0027962126088373006 -7.0076826113191524e-05 -0.0020756874329620791 -0.0034433413545290632 -0.0019421423066320808 -0.0022811371673430716 -0.002429579532749596 -0.0030573814194146754 -0.0020226156476296879 -0.0013916043735419711 -0.0011278230502891045 0.00044907589629292492 -0.00097172464819676762 -0.0019906558874063195 -0.0016399154501656691 -0.00050873843266163027 -0.0015770758305572801 -0.0026889079605462028
leaf_count=36 20 21 21 34 22 23 30 20 22 20 38 32 84 22 31 93 43 21 21 44 38 36 24 20 36 20 24 20 36 22
internal_value=0 0.840363 0.587526 0.360036 -0.325611 0.0792328 0.730268 1.43197 0.107454 -0.16258 0.00104809 -0.478022 -0.404778 -0.235953 -0.57154 -0.617978 -0.452473 -0.278562 -0.355041 -0.530323 -0.511051 -0.381715 -0.0950003 -0.0616648 -0.102605 -0.3189 -0.432224 -0.280954 -0.239105 -0.438979
internal_count=974 272 236 215 702 192 52 41 174 140 152 510 286 63 224 168 223 117 41 75 122 101 118 94 74 97 56 76 56 65
shrinkage=0.005


Tree=34
num_leaves=31
num_cat=0
split_feature=77 7 87 16 84 1 27 8 21 109 115 12 19 64 16 16 16 112 37 134 75 3 10 59 105 137 71 107 21 34
split_gain=264.025 184.751 76.6751 62.4947 37.8875 32.6733 24.3526 14.5301 13.47 13.9219 5.58275 5.5047 2.2268 2.16522 1.59731 1.12275 1.06511 1.03241 0.889232 1.03488 0.711771 0.638708 0.549621 0.529926 0.462933 0.798382 0.548717 0.436298 0.855641 0.387781
threshold=0.22896578668996434 -0.069263588307031124 0.17137143836909532 -0.59042666954936729 -0.013194218961969427 -0.70208399093098184 1.6718084218840159 0.16774417900071434 -1.3200433467496075 -0.17480179907405916 -0.17359817197566055 -0.35954061938272741 0.65739808921907872 -0.73577392634039451 -0.064142713759908349 -0.3304321388488089 -0.13542673808177838 0.58190242459081143 -1.822804411727472 -0.7024379246811624 -0.15759146768366009 -1.1803622422875351 -0.59891627966714156 -0.42126486111764588 -0.28202294543235135 0.85380584221806899 0.75494631378982258 -0.45320589714141318 -0.99605318109781182 -0.80551390153024383
decision_type=2 2 2 2 2 2 2 2 2 2 2 2 2 2 2 2 2 2 2 2 2 2 2 2 2 2 2 2 2 2
left_child=4 -2 -3 6 5 -1 -4 -7 9 -5 -10 12 14 16 21 20 -13 -12 -15 23 -9 -6 -22 -20 25 26 -21 28 -19 -18
right_child=1 2 3 8 11 7 -8 15 10 -11 17 13 -14 18 -16 -17 29 27 19 24 22 -23 -24 -25 -26 -27 -28 -29 -30 -31
leaf_value=0.0063199437152416937 0.016213321821498018 0.010845927068820368 0.010921736445426093 0.00039363897880181095 -0.0024109570875721562 0.0030978259467519822 0.0033941395066323732 -0.0021006260626018048 0.0017726410281491175 0.0057979661914181304 -0.0015374976641464014 -0.0026719168794807047 0.00017103672400116919 -0.0019481165095677842 -0.00054582613559129342 -0.00021525495008311489 -0.0023018932987137566 -0.00085010224056464648 -0.0017878976739619089 -0.0029289090864617253 -0.00063885791054754356 -0.0014449461589434319 -0.0016677060469985009 -0.0028297957462760123 -0.0034699955675750972 -0.0033875764518976211 -0.0018523735384806058 -0.00094898838722319513 0.00034212595018770492 -0.0016684300563214586
leaf_count=21 28 26 22 26 44 24 21 30 29 22 27 64 20 23 24 22 35 27 23 29 27 28 25 26 72 50 20 27 34 78
internal_value=0 0.801566 0.539686 0.359401 -0.338179 0.10788 1.44909 -0.0817943 0.115355 0.574124 -0.0375681 -0.462177 -0.269344 -0.515435 -0.332584 -0.243647 -0.431307 -0.136445 -0.576714 -0.596273 -0.297465 -0.407057 -0.226699 -0.468148 -0.632988 -0.588615 -0.497901 -0.0839617 -0.0371163 -0.372927
internal_count=974 289 261 235 685 149 43 128 192 48 144 536 116 420 96 104 177 115 243 220 82 72 52 49 171 99 49 88 61 113
shrinkage=0.005


Tree=35
num_leaves=31
num_cat=0
split_feature=30 7 83 16 40 50 59 40 11 107 22 6 71 107 56 64 51 16 84 42 51 35 81 16 40 89 1 7 23 137
split_gain=261.4 111.759 123.287 57.1077 42.4769 29.8412 29.3962 27.1964 13.4267 9.41464 3.42933 3.32707 2.25501 1.64832 1.42623 1.02215 0.955272 1.30741 0.91497 0.91204 0.734476 0.695195 0.615808 0.588308 0.543578 0.506749 0.451033 0.38033 0.577909 0.320489
threshold=-0.5355108897826969 -0.069263588307031124 -0.17450158280300657 -0.59042666954936729 -0.017086897919685932 -0.2630143048545816 0.25998891943136465 0.1532433658828645 -1.3103377682358868 -1.5961509698970884 0.31614206897980862 -1.1938075186234645 0.26291522515033372 0.67208229504610595 -1.1179036153435675 -0.54662827342167164 0.034549340958155268 -0.47422929918888984 0.0077285345581794866 -0.34955165338325317 -0.073461614424569069 -0.50042479955214414 0.39815253750001806 0.2441323459615953 0.14353061669669984 0.17122405381302383 -0.79291721472963872 0.17256451581297258 -0.19395601305031604 0.75985702812227185
decision_type=2 2 2 2 2 2 2 2 2 2 2 2 2 2 2 2 2 2 2 2 2 2 2 2 2 2 2 2 2 2
